svm_type c_svc
kernel_type rbf
gamma 0.0204082
nr_class 4
total_sv 10
rho -0.860514 -0.962833 -0.969673 -0.922236 -0.906899 0
label 1 2 3 4
nr_sv 6 2 1 1
SV
0.1953085311680615 0.1577427721583572 0.1316253784319964 1:1 2:1 3:1 4:1 5:1 
0.2000817442534132 0.1577427721583571 0.1258059868126205 2:1 6:1 7:1 8:1 9:1 
0.1733953657846385 0.1302428046166297 0.1062761309028085 10:1 11:1 12:1 13:1 14:1 15:1 16:1 
1 0.1897016854386569 0.3388090036748873 17:1 18:1 19:1 20:1 21:1 
0.3064982346709337 0.2770587010737839 0.226075650549374 22:1 23:1 24:1 
0.1247161241229531 0.0875112645542151 0.07140784962831341 12:1 22:1 25:1 26:1 27:1 28:1 29:1 
-1 0.5573495675214677 0.6124053705818744 18:1 19:1 20:1 21:1 30:1 31:1 
-1 0.4426504324785323 0.3875946294181256 32:1 37:1 38:1 39:1 40:1 41:1 42:1 43:1 44:1 45:1 
-1 -1 1 32:1 33:1 34:1 35:1 36:1 
-1 -1 -1 17:1 46:1 47:1 48:1 49:1 
