svm_type c_svc
kernel_type rbf
gamma 4.67202e-05
nr_class 2
total_sv 2795
rho -0.959103
label 1 2
nr_sv 1598 1197
SV
0.3921209026516875 1:1 6:1 8:1 15:1 29:1 32:1 33:1 42:1 52:1 66:1 198:1 209:1 211:1 212:1 213:1 214:1 215:1 
0.6557878092621791 8:1 19:1 29:1 43:1 78:1 140:1 152:1 220:1 221:1 222:1 223:1 224:1 225:1 226:1 227:1 228:1 229:1 230:1 
1 8:1 29:1 30:1 38:1 44:1 52:1 107:1 126:1 224:1 273:1 279:1 281:1 282:1 283:1 284:1 285:1 286:1 287:1 
1 29:1 143:1 198:1 309:1 310:1 311:1 312:1 
1 8:1 78:1 107:1 125:1 140:1 207:1 286:1 322:1 344:1 353:1 363:1 405:1 419:1 420:1 421:1 422:1 423:1 424:1 
1 8:1 148:1 286:1 312:1 389:1 429:1 430:1 431:1 
0.5992727696866856 11:1 29:1 121:1 198:1 223:1 355:1 405:1 439:1 441:1 464:1 489:1 507:1 508:1 509:1 510:1 511:1 512:1 513:1 
0.4769706404706432 1:1 7:1 8:1 12:1 51:1 122:1 140:1 150:1 152:1 199:1 223:1 434:1 436:1 514:1 515:1 516:1 517:1 518:1 
1 43:1 125:1 140:1 151:1 198:1 272:1 405:1 467:1 550:1 566:1 568:1 569:1 570:1 571:1 572:1 573:1 574:1 575:1 
1 29:1 33:1 76:1 78:1 81:1 100:1 272:1 312:1 405:1 467:1 470:1 561:1 566:1 581:1 638:1 644:1 651:1 652:1 
0.4882161173726214 8:1 19:1 29:1 33:1 42:1 45:1 52:1 81:1 467:1 560:1 561:1 566:1 655:1 674:1 675:1 676:1 677:1 
0.5532174888179788 8:1 56:1 67:1 78:1 140:1 150:1 152:1 460:1 516:1 786:1 807:1 808:1 809:1 810:1 811:1 812:1 813:1 814:1 815:1 816:1 817:1 818:1 819:1 820:1 821:1 822:1 
0.4830301432843055 8:1 29:1 78:1 239:1 450:1 560:1 655:1 840:1 841:1 842:1 843:1 844:1 
0.2217037369984229 8:1 12:1 33:1 126:1 140:1 152:1 156:1 205:1 312:1 587:1 890:1 895:1 896:1 897:1 898:1 899:1 900:1 901:1 902:1 903:1 904:1 905:1 906:1 
0.3720752101566792 8:1 15:1 19:1 29:1 43:1 78:1 101:1 140:1 152:1 162:1 198:1 205:1 271:1 286:1 321:1 500:1 641:1 806:1 881:1 882:1 886:1 910:1 914:1 915:1 917:1 918:1 919:1 920:1 921:1 922:1 923:1 924:1 925:1 926:1 927:1 928:1 929:1 930:1 931:1 932:1 933:1 934:1 
0.3848813811413279 1:1 12:1 29:1 42:1 43:1 56:1 140:1 152:1 156:1 162:1 209:1 213:1 259:1 287:1 364:1 405:1 421:1 486:1 780:1 935:1 936:1 937:1 938:1 939:1 940:1 941:1 942:1 943:1 944:1 945:1 946:1 
1 8:1 78:1 286:1 361:1 840:1 962:1 963:1 
0.4664931313846322 8:1 12:1 29:1 42:1 51:1 150:1 152:1 156:1 184:1 206:1 224:1 505:1 970:1 971:1 972:1 973:1 974:1 975:1 976:1 
1 8:1 19:1 29:1 78:1 150:1 434:1 447:1 516:1 991:1 1009:1 1057:1 1058:1 
1 447:1 970:1 986:1 1064:1 1065:1 1066:1 
0.9799548574622157 8:1 29:1 33:1 206:1 288:1 361:1 970:1 986:1 1003:1 1009:1 1067:1 1068:1 1069:1 1070:1 1071:1 
1 8:1 33:1 43:1 140:1 148:1 150:1 152:1 200:1 930:1 1006:1 1080:1 1081:1 
1 29:1 148:1 150:1 227:1 389:1 1044:1 1090:1 
0.6523681568058979 8:1 19:1 29:1 33:1 170:1 174:1 205:1 220:1 332:1 806:1 871:1 1098:1 1099:1 1107:1 1124:1 1131:1 1132:1 1133:1 1134:1 1135:1 
0.5357177568506045 29:1 33:1 50:1 107:1 120:1 156:1 205:1 417:1 583:1 683:1 831:1 860:1 1120:1 1139:1 1151:1 1152:1 1153:1 1154:1 1155:1 1156:1 1157:1 
1 85:1 152:1 220:1 1150:1 1164:1 1165:1 1166:1 1170:1 1171:1 1172:1 1173:1 1174:1 1175:1 
1 152:1 212:1 234:1 273:1 587:1 1150:1 1165:1 1200:1 
1 8:1 29:1 125:1 148:1 154:1 199:1 271:1 278:1 661:1 1010:1 1070:1 1139:1 1202:1 1203:1 1204:1 1205:1 1206:1 
0.5764948765256391 560:1 1164:1 1209:1 1211:1 1212:1 1213:1 1214:1 1215:1 
0.3804252184673456 8:1 78:1 178:1 1220:1 1221:1 1222:1 1223:1 1224:1 1225:1 1226:1 
1 8:1 19:1 29:1 115:1 140:1 200:1 206:1 261:1 375:1 433:1 438:1 587:1 1102:1 1232:1 1235:1 1236:1 1237:1 1238:1 1239:1 1240:1 1241:1 
0.5287716237693749 30:1 166:1 261:1 583:1 1271:1 1276:1 1277:1 
1 8:1 11:1 19:1 21:1 29:1 76:1 78:1 130:1 140:1 271:1 304:1 314:1 331:1 343:1 349:1 364:1 854:1 1232:1 1314:1 1316:1 1335:1 1336:1 1337:1 1338:1 
0.9734776781327724 8:1 33:1 78:1 84:1 198:1 300:1 531:1 1388:1 1396:1 
0.7109854720674524 19:1 29:1 33:1 58:1 78:1 88:1 127:1 129:1 140:1 152:1 198:1 239:1 241:1 286:1 295:1 304:1 321:1 902:1 1232:1 1283:1 1308:1 1311:1 1376:1 1385:1 1399:1 1400:1 1401:1 1402:1 1403:1 1404:1 1405:1 1406:1 1407:1 
0.3721881459942433 19:1 56:1 76:1 111:1 172:1 568:1 1308:1 1385:1 1394:1 1414:1 1416:1 1417:1 1418:1 1419:1 
1 96:1 140:1 152:1 195:1 255:1 579:1 902:1 1232:1 1234:1 1311:1 1313:1 
1 8:1 58:1 278:1 343:1 389:1 1010:1 1435:1 1441:1 
1 389:1 1474:1 1475:1 
1 156:1 353:1 1388:1 
0.7009693468215819 8:1 12:1 29:1 33:1 56:1 140:1 152:1 156:1 195:1 213:1 331:1 379:1 521:1 637:1 682:1 855:1 1062:1 1526:1 1528:1 1538:1 1539:1 1540:1 
0.6997830851996159 8:1 74:1 78:1 205:1 261:1 321:1 359:1 407:1 822:1 970:1 987:1 1128:1 1265:1 1518:1 1558:1 1561:1 1562:1 1563:1 1564:1 1565:1 1566:1 1567:1 1568:1 1569:1 1570:1 1571:1 1572:1 
1 8:1 19:1 23:1 43:1 58:1 118:1 140:1 151:1 167:1 201:1 212:1 261:1 353:1 405:1 538:1 544:1 683:1 1009:1 1293:1 1492:1 1589:1 1590:1 
1 8:1 54:1 56:1 78:1 100:1 167:1 220:1 256:1 261:1 394:1 405:1 538:1 627:1 1009:1 1054:1 1598:1 1599:1 1600:1 1601:1 
1 8:1 29:1 31:1 67:1 79:1 100:1 122:1 140:1 152:1 209:1 213:1 220:1 275:1 321:1 460:1 505:1 1029:1 1062:1 1162:1 1476:1 1485:1 1646:1 1647:1 1648:1 
1 8:1 158:1 161:1 301:1 505:1 999:1 1673:1 1674:1 
1 8:1 19:1 35:1 56:1 78:1 121:1 122:1 263:1 627:1 681:1 901:1 1004:1 1713:1 1714:1 1715:1 
0.578891100904698 8:1 19:1 35:1 44:1 56:1 76:1 122:1 125:1 147:1 245:1 343:1 1004:1 1679:1 1716:1 1717:1 1718:1 1719:1 1720:1 
0.427494127015365 92:1 263:1 389:1 1734:1 1755:1 1756:1 1757:1 
1 8:1 18:1 30:1 125:1 263:1 271:1 343:1 389:1 1010:1 1758:1 
1 19:1 56:1 107:1 286:1 335:1 934:1 1775:1 1776:1 1777:1 
0.7019017706283399 44:1 51:1 56:1 107:1 400:1 417:1 445:1 690:1 1311:1 1775:1 1783:1 1784:1 
1 11:1 33:1 38:1 88:1 121:1 125:1 312:1 644:1 1746:1 1788:1 1789:1 1790:1 1791:1 
0.4380078478182988 8:1 11:1 56:1 72:1 78:1 213:1 415:1 605:1 668:1 1126:1 1663:1 1791:1 1792:1 1793:1 1794:1 1795:1 1796:1 1797:1 
1 11:1 19:1 33:1 51:1 212:1 300:1 359:1 417:1 691:1 1404:1 1509:1 1718:1 1791:1 1798:1 1799:1 1800:1 
0.5344043721452809 187:1 363:1 405:1 1050:1 1329:1 1791:1 1801:1 1802:1 
1 56:1 101:1 295:1 690:1 828:1 892:1 1464:1 1791:1 
0.4033987604124354 29:1 43:1 51:1 78:1 156:1 637:1 1602:1 1805:1 1806:1 1807:1 1808:1 1809:1 1810:1 1811:1 
1 8:1 11:1 33:1 38:1 78:1 100:1 120:1 125:1 343:1 400:1 416:1 435:1 445:1 516:1 892:1 901:1 1039:1 1425:1 1464:1 1791:1 1805:1 1823:1 
1 38:1 78:1 206:1 400:1 445:1 516:1 854:1 1464:1 1791:1 1846:1 
1 8:1 29:1 56:1 579:1 855:1 1039:1 1791:1 1805:1 1842:1 
1 8:1 29:1 45:1 100:1 138:1 321:1 1039:1 1089:1 1464:1 1791:1 1805:1 1884:1 
1 29:1 71:1 76:1 81:1 128:1 138:1 389:1 475:1 516:1 544:1 690:1 1791:1 1802:1 1885:1 
1 29:1 78:1 96:1 246:1 644:1 1791:1 1802:1 1834:1 1893:1 1894:1 1895:1 1896:1 
1 8:1 33:1 56:1 78:1 330:1 389:1 520:1 544:1 1089:1 1409:1 1464:1 1791:1 1897:1 1898:1 
0.9469524980604387 841:1 871:1 1791:1 1899:1 
1 330:1 400:1 516:1 544:1 1084:1 1089:1 1791:1 1794:1 1802:1 
1 8:1 11:1 19:1 435:1 587:1 668:1 1027:1 1133:1 1162:1 1791:1 1895:1 1907:1 1908:1 1909:1 1910:1 
0.854544004639023 11:1 12:1 19:1 51:1 56:1 84:1 101:1 121:1 156:1 172:1 890:1 901:1 1027:1 1303:1 1522:1 1791:1 1834:1 1915:1 
1 12:1 29:1 156:1 218:1 890:1 1590:1 1791:1 
1 8:1 29:1 78:1 107:1 122:1 286:1 379:1 516:1 719:1 854:1 970:1 1126:1 1464:1 1791:1 1795:1 1826:1 1916:1 1917:1 1918:1 1919:1 1920:1 1921:1 1922:1 
1 8:1 29:1 42:1 125:1 129:1 143:1 148:1 205:1 206:1 271:1 892:1 1089:1 1464:1 1791:1 1802:1 1931:1 1932:1 1933:1 1934:1 
1 1475:1 1935:1 
1 19:1 29:1 45:1 81:1 101:1 142:1 152:1 156:1 162:1 246:1 509:1 1366:1 1412:1 1936:1 1937:1 1938:1 1939:1 1940:1 1941:1 1942:1 
0.5619921521817012 1:1 8:1 51:1 56:1 78:1 140:1 142:1 162:1 211:1 440:1 1077:1 1350:1 1635:1 1692:1 1939:1 1943:1 1944:1 1945:1 1946:1 1947:1 1948:1 1949:1 1950:1 1951:1 1952:1 1953:1 1954:1 
0.4867460571115333 29:1 1663:1 1990:1 1991:1 1992:1 1993:1 1994:1 1995:1 1996:1 1997:1 1998:1 1999:1 2000:1 
1 12:1 13:1 29:1 140:1 152:1 154:1 167:1 363:1 375:1 667:1 2019:1 2020:1 2021:1 2022:1 2023:1 2024:1 2025:1 
0.7158731028608321 7:1 207:1 655:1 1325:1 2032:1 2033:1 2034:1 2035:1 
1 84:1 156:1 395:1 798:1 2017:1 2061:1 2066:1 2067:1 2068:1 2069:1 
1 42:1 239:1 284:1 441:1 496:1 798:1 1095:1 1426:1 1436:1 2093:1 2094:1 2095:1 
1 50:1 74:1 187:1 309:1 312:1 1062:1 1334:1 2103:1 
1 58:1 364:1 798:1 2105:1 2110:1 
1 50:1 148:1 152:1 156:1 187:1 309:1 315:1 2103:1 2110:1 2112:1 2114:1 2115:1 
1 8:1 29:1 50:1 213:1 364:1 836:1 841:1 999:1 1062:1 1383:1 2103:1 2134:1 2135:1 2136:1 2137:1 
1 64:1 173:1 284:1 398:1 426:1 858:1 1231:1 2119:1 2120:1 2123:1 2197:1 
0.3876802737578908 12:1 29:1 56:1 150:1 538:1 581:1 587:1 791:1 1435:1 2201:1 2202:1 2203:1 2204:1 2205:1 2206:1 2207:1 
0.538125367107309 8:1 19:1 29:1 44:1 47:1 51:1 125:1 143:1 206:1 304:1 363:1 434:1 840:1 1317:1 1638:1 1837:1 2230:1 2234:1 2238:1 2239:1 2240:1 2241:1 2242:1 2243:1 2244:1 2245:1 
1 8:1 55:1 120:1 150:1 286:1 363:1 441:1 1435:1 2234:1 2246:1 2247:1 2248:1 
0.6872678235938129 19:1 29:1 33:1 188:1 201:1 269:1 486:1 520:1 1944:1 2277:1 2278:1 2297:1 2298:1 2299:1 2300:1 
0.9763318988064568 8:1 29:1 30:1 120:1 143:1 188:1 227:1 271:1 1089:1 
1 8:1 67:1 78:1 188:1 542:1 1106:1 2284:1 2318:1 
0.2388894501382026 828:1 1746:1 2150:1 2341:1 2342:1 2343:1 2344:1 2345:1 
1 101:1 583:1 1165:1 1834:1 2354:1 2355:1 
0.5797103203688706 8:1 14:1 15:1 19:1 321:1 421:1 996:1 1388:1 1805:1 2342:1 2352:1 2374:1 
1 29:1 107:1 205:1 321:1 1172:1 2382:1 
1 126:1 1010:1 2389:1 2390:1 2391:1 
0.4916168793492731 8:1 12:1 29:1 228:1 238:1 239:1 271:1 521:1 538:1 562:1 854:1 2468:1 2478:1 2479:1 2480:1 2481:1 
0.6617185698499612 8:1 13:1 19:1 29:1 78:1 140:1 206:1 227:1 271:1 273:1 303:1 332:1 353:1 538:1 636:1 860:1 1282:1 1405:1 1605:1 2497:1 2498:1 2499:1 
1 8:1 11:1 19:1 29:1 78:1 126:1 172:1 271:1 293:1 312:1 521:1 538:1 564:1 870:1 976:1 1110:1 1140:1 1605:1 1726:1 2252:1 2526:1 2532:1 2533:1 2534:1 
1 8:1 43:1 120:1 800:1 2091:1 2538:1 2540:1 2570:1 
1 8:1 50:1 78:1 140:1 152:1 928:1 1027:1 1386:1 1991:1 2064:1 2540:1 2571:1 2572:1 
0.1445167409084099 159:1 639:1 791:1 837:1 2001:1 2587:1 2588:1 2589:1 2590:1 
1 38:1 78:1 652:1 840:1 1991:1 2591:1 2592:1 
0.7390358740416052 50:1 56:1 195:1 228:1 595:1 1772:1 2620:1 
1 31:1 50:1 59:1 127:1 272:1 627:1 1428:1 1515:1 1775:1 2631:1 2636:1 
0.3822062918589686 8:1 29:1 125:1 271:1 313:1 314:1 798:1 1313:1 2668:1 2669:1 2670:1 2671:1 2672:1 2673:1 2674:1 2675:1 2676:1 2677:1 
0.1799156973221709 8:1 18:1 19:1 29:1 111:1 172:1 271:1 314:1 320:1 331:1 341:1 344:1 398:1 460:1 583:1 798:1 996:1 2678:1 2679:1 2680:1 2681:1 2682:1 2683:1 
1 29:1 138:1 2658:1 2687:1 
0.5251969656853313 8:1 19:1 29:1 39:1 78:1 138:1 140:1 151:1 152:1 271:1 466:1 583:1 2658:1 2698:1 2699:1 
1 1:1 12:1 29:1 35:1 51:1 52:1 56:1 117:1 121:1 142:1 1054:1 1678:1 2103:1 2709:1 2727:1 2732:1 
0.4193123796616681 30:1 51:1 56:1 84:1 150:1 227:1 231:1 237:1 441:1 981:1 1074:1 1705:1 2720:1 2736:1 2740:1 2741:1 2742:1 
1 19:1 51:1 84:1 325:1 635:1 2084:1 2103:1 2709:1 2743:1 
1 19:1 84:1 98:1 158:1 161:1 172:1 1031:1 1853:1 2761:1 2762:1 2763:1 
1 18:1 19:1 29:1 33:1 121:1 125:1 148:1 152:1 158:1 161:1 168:1 188:1 302:1 312:1 447:1 862:1 1095:1 1342:1 2764:1 2765:1 2766:1 2767:1 2768:1 2769:1 2770:1 2771:1 2772:1 2773:1 2774:1 
1 56:1 206:1 405:1 516:1 2764:1 2775:1 
0.5089843481476356 12:1 29:1 98:1 148:1 172:1 212:1 516:1 1231:1 1681:1 2776:1 
0.5117838826273786 8:1 29:1 34:1 78:1 264:1 516:1 560:1 1453:1 2764:1 2783:1 2784:1 2785:1 2786:1 2787:1 
0.6761088997500981 8:1 12:1 18:1 158:1 161:1 239:1 363:1 2764:1 2788:1 2789:1 
0.6378366749178325 8:1 161:1 172:1 275:1 516:1 683:1 2686:1 2791:1 2799:1 2800:1 
0.4652436300393691 8:1 118:1 120:1 122:1 184:1 220:1 382:1 841:1 1106:1 1110:1 2801:1 2802:1 
1 8:1 29:1 30:1 67:1 78:1 150:1 271:1 276:1 665:1 792:1 938:1 1011:1 1041:1 1594:1 2840:1 2841:1 
0.6353726857626083 8:1 19:1 30:1 34:1 35:1 38:1 111:1 127:1 159:1 489:1 937:1 1009:1 1068:1 1080:1 1683:1 2842:1 2849:1 2850:1 2851:1 
1 8:1 29:1 30:1 33:1 73:1 148:1 162:1 209:1 265:1 271:1 343:1 460:1 496:1 545:1 937:1 2307:1 2840:1 2852:1 2857:1 
0.3292155326587826 8:1 29:1 42:1 120:1 147:1 167:1 245:1 331:1 342:1 344:1 389:1 423:1 460:1 854:1 987:1 1011:1 1076:1 1089:1 1280:1 1567:1 2420:1 2871:1 2872:1 2873:1 2874:1 2875:1 
0.6133483042621182 33:1 56:1 76:1 118:1 195:1 342:1 583:1 643:1 1645:1 2315:1 2420:1 2421:1 2877:1 
0.4924906100228552 8:1 28:1 32:1 78:1 93:1 117:1 118:1 127:1 140:1 152:1 156:1 167:1 440:1 460:1 2307:1 2420:1 2872:1 2874:1 2904:1 2905:1 
1 19:1 29:1 67:1 486:1 643:1 987:1 1187:1 1567:1 2420:1 2874:1 2906:1 2907:1 2908:1 
1 19:1 24:1 42:1 52:1 84:1 96:1 98:1 127:1 144:1 1388:1 1837:1 2694:1 2917:1 2920:1 2921:1 2922:1 
1 7:1 140:1 152:1 206:1 286:1 353:1 639:1 840:1 938:1 1054:1 1293:1 1788:1 2640:1 2923:1 2924:1 2925:1 
1 151:1 187:1 2923:1 2941:1 2953:1 2954:1 
1 44:1 56:1 204:1 2943:1 
0.5662370304616871 18:1 29:1 45:1 52:1 74:1 96:1 198:1 486:1 1442:1 2923:1 2943:1 2973:1 2974:1 2975:1 2976:1 2977:1 
1 29:1 271:1 500:1 854:1 1089:1 2923:1 2944:1 2964:1 2991:1 
1 18:1 19:1 29:1 199:1 416:1 538:1 1069:1 1206:1 2963:1 2989:1 2992:1 2993:1 
1 18:1 50:1 195:1 339:1 831:1 854:1 1183:1 1961:1 2923:1 2997:1 2998:1 2999:1 
1 11:1 60:1 100:1 140:1 151:1 163:1 187:1 312:1 399:1 400:1 2923:1 2932:1 2934:1 2941:1 2947:1 2948:1 2949:1 2950:1 2951:1 
1 19:1 29:1 39:1 42:1 50:1 59:1 100:1 151:1 231:1 374:1 402:1 1054:1 1702:1 2313:1 2941:1 2943:1 2964:1 2985:1 2986:1 
1 18:1 19:1 56:1 111:1 122:1 151:1 152:1 156:1 158:1 161:1 187:1 284:1 486:1 1052:1 1183:1 1702:1 2743:1 2932:1 2934:1 2941:1 2987:1 
1 58:1 84:1 469:1 754:1 892:1 2952:1 
1 56:1 500:1 979:1 2460:1 3016:1 
1 12:1 35:1 38:1 43:1 74:1 78:1 84:1 140:1 150:1 198:1 381:1 415:1 545:1 1949:1 2420:1 2923:1 2941:1 3017:1 3018:1 
0.4089264789590721 12:1 66:1 125:1 151:1 261:1 500:1 556:1 1137:1 1524:1 3062:1 3063:1 
0.6933745953995094 78:1 165:1 500:1 542:1 840:1 1041:1 1512:1 3069:1 3070:1 3071:1 3072:1 
1 8:1 78:1 127:1 151:1 1028:1 1209:1 3057:1 3064:1 
0.5987119442614928 8:1 29:1 56:1 383:1 1457:1 1591:1 2160:1 3035:1 3064:1 3088:1 3089:1 3090:1 
1 8:1 271:1 389:1 2503:1 3099:1 3105:1 
1 8:1 78:1 125:1 322:1 633:1 641:1 1510:1 2313:1 3128:1 3129:1 3130:1 
0.3238911002499019 8:1 29:1 78:1 220:1 322:1 1260:1 2086:1 3133:1 3134:1 3135:1 
1 29:1 51:1 107:1 125:1 143:1 272:1 405:1 627:1 1311:1 3148:1 
1 29:1 854:1 1089:1 1311:1 3150:1 3151:1 
0.3167948211011086 24:1 29:1 39:1 42:1 43:1 44:1 66:1 78:1 140:1 152:1 792:1 1011:1 1126:1 1137:1 1208:1 1388:1 1652:1 1770:1 2420:1 2767:1 3177:1 3184:1 3186:1 3194:1 3195:1 3196:1 
1 152:1 156:1 321:1 2376:1 3208:1 
0.6474993763444381 8:1 29:1 39:1 42:1 58:1 78:1 118:1 261:1 273:1 331:1 333:1 453:1 650:1 799:1 1079:1 1268:1 1330:1 1436:1 1642:1 2376:1 2871:1 3209:1 3210:1 
1 12:1 29:1 174:1 321:1 357:1 661:1 1876:1 2376:1 3208:1 3223:1 3224:1 3225:1 3226:1 3227:1 3228:1 
0.3060416048334886 19:1 29:1 56:1 66:1 124:1 127:1 152:1 156:1 286:1 417:1 432:1 661:1 854:1 858:1 1137:1 1184:1 1652:1 2798:1 3223:1 3228:1 3238:1 3239:1 
1 19:1 29:1 30:1 84:1 115:1 127:1 259:1 263:1 1028:1 1753:1 2832:1 3234:1 3247:1 3248:1 
1 29:1 273:1 313:1 400:1 567:1 1248:1 1330:1 3250:1 3251:1 3252:1 3253:1 
1 8:1 29:1 38:1 71:1 112:1 129:1 243:1 286:1 313:1 364:1 560:1 627:1 871:1 1473:1 1683:1 1689:1 3238:1 3239:1 3254:1 
1 18:1 72:1 121:1 125:1 158:1 161:1 1315:1 2241:1 
0.7180434547786574 11:1 18:1 19:1 23:1 29:1 56:1 67:1 78:1 100:1 111:1 140:1 143:1 158:1 161:1 172:1 174:1 583:1 605:1 767:1 768:1 872:1 1004:1 1768:1 2839:1 3255:1 3256:1 3257:1 3258:1 3259:1 
1 8:1 25:1 29:1 30:1 33:1 44:1 48:1 125:1 158:1 161:1 261:1 290:1 636:1 1062:1 3119:1 3257:1 3273:1 
0.5338708383861105 8:1 29:1 42:1 51:1 52:1 56:1 66:1 184:1 256:1 321:1 1054:1 1107:1 1137:1 1678:1 2301:1 
0.2645410322913984 8:1 389:1 405:1 1086:1 1460:1 
1 8:1 19:1 29:1 107:1 125:1 159:1 199:1 271:1 290:1 343:1 970:1 1091:1 1206:1 1426:1 3293:1 3294:1 3295:1 
1 56:1 3300:1 
0.8038839327260965 11:1 29:1 35:1 121:1 125:1 151:1 560:1 661:1 3307:1 3311:1 3317:1 3322:1 3323:1 
0.42214458263113 140:1 151:1 152:1 156:1 881:1 3330:1 3331:1 3332:1 3333:1 
0.3490275731301208 8:1 9:1 11:1 29:1 58:1 67:1 122:1 172:1 424:1 496:1 503:1 518:1 560:1 564:1 801:1 901:1 2664:1 3333:1 3334:1 3335:1 3336:1 3337:1 3338:1 3339:1 3340:1 
0.6360589245393262 8:1 11:1 21:1 29:1 35:1 38:1 50:1 78:1 122:1 127:1 151:1 271:1 901:1 1284:1 1641:1 1689:1 1826:1 1988:1 3340:1 3347:1 3348:1 3349:1 3350:1 3351:1 3352:1 3353:1 3354:1 
1 8:1 19:1 29:1 122:1 125:1 140:1 147:1 151:1 152:1 220:1 271:1 518:1 560:1 1171:1 1736:1 3311:1 3317:1 3359:1 3360:1 3361:1 
0.6082345819692758 8:1 29:1 125:1 205:1 271:1 343:1 364:1 480:1 1435:1 3367:1 3368:1 3369:1 3370:1 3371:1 3372:1 3373:1 
1 29:1 122:1 125:1 140:1 151:1 152:1 389:1 560:1 661:1 1090:1 3307:1 3317:1 3401:1 3424:1 3425:1 
1 19:1 29:1 30:1 42:1 67:1 150:1 480:1 1284:1 3429:1 
0.6043828731690195 51:1 76:1 140:1 206:1 516:1 637:1 3452:1 3457:1 3458:1 3459:1 3460:1 3461:1 3462:1 3463:1 
0.465595627854719 45:1 140:1 152:1 158:1 161:1 172:1 273:1 1137:1 1371:1 1476:1 1591:1 3480:1 
1 29:1 151:1 290:1 579:1 1010:1 3430:1 3485:1 
1 8:1 78:1 99:1 117:1 220:1 429:1 1678:1 1881:1 3499:1 3500:1 
0.5332955671739102 126:1 459:1 641:1 854:1 1441:1 2707:1 3424:1 3529:1 3533:1 3534:1 
1 29:1 35:1 38:1 343:1 683:1 841:1 1010:1 1104:1 
1 29:1 140:1 152:1 227:1 660:1 2978:1 3416:1 3552:1 3553:1 3554:1 3555:1 
1 8:1 78:1 500:1 2313:1 3154:1 3560:1 3561:1 3562:1 3563:1 
0.3703826600873823 8:1 29:1 52:1 181:1 184:1 363:1 993:1 996:1 1428:1 1483:1 3154:1 3553:1 3571:1 
1 8:1 29:1 78:1 125:1 140:1 141:1 151:1 152:1 271:1 614:1 667:1 711:1 712:1 3559:1 3579:1 
1 19:1 43:1 84:1 140:1 151:1 152:1 635:1 863:1 1768:1 1866:1 3553:1 3591:1 3592:1 
0.3811105550972144 12:1 44:1 56:1 66:1 229:1 785:1 901:1 2859:1 3143:1 3279:1 3602:1 3603:1 
1 18:1 24:1 29:1 33:1 42:1 50:1 52:1 76:1 101:1 125:1 198:1 261:1 1389:1 3143:1 
1 19:1 29:1 172:1 321:1 486:1 970:1 1212:1 1417:1 3657:1 3658:1 3659:1 
0.6062218600001731 8:1 24:1 76:1 78:1 321:1 349:1 970:1 1343:1 3660:1 3661:1 3662:1 3663:1 3664:1 3665:1 3666:1 
1 15:1 19:1 29:1 76:1 101:1 121:1 172:1 315:1 355:1 855:1 883:1 901:1 1168:1 1689:1 3608:1 
0.4007272303133144 11:1 12:1 29:1 33:1 38:1 44:1 78:1 140:1 152:1 286:1 400:1 516:1 579:1 1062:1 1587:1 2879:1 3143:1 3708:1 3709:1 3711:1 3714:1 
0.5900717745370261 15:1 19:1 33:1 38:1 76:1 84:1 140:1 144:1 152:1 173:1 259:1 583:1 778:1 2734:1 2755:1 2978:1 3063:1 3754:1 3755:1 3756:1 
0.5316609140250854 78:1 125:1 140:1 152:1 271:1 500:1 636:1 1063:1 2720:1 3778:1 3779:1 3780:1 3781:1 
1 8:1 12:1 15:1 33:1 56:1 111:1 156:1 172:1 484:1 831:1 1266:1 1327:1 1805:1 1834:1 1876:1 2735:1 3207:1 3788:1 3789:1 
1 19:1 29:1 42:1 52:1 84:1 172:1 184:1 325:1 363:1 798:1 1050:1 1054:1 1907:1 2735:1 3792:1 3794:1 3795:1 
0.2538500625956343 8:1 29:1 76:1 271:1 400:1 424:1 798:1 892:1 927:1 1089:1 1422:1 1456:1 2088:1 2090:1 2613:1 2944:1 3622:1 3862:1 3863:1 
1 29:1 30:1 148:1 220:1 264:1 271:1 496:1 560:1 1041:1 1154:1 3887:1 3888:1 3889:1 3890:1 
0.5905413099785173 8:1 12:1 19:1 29:1 58:1 76:1 110:1 151:1 318:1 1590:1 1702:1 2125:1 2789:1 3492:1 3915:1 3916:1 3917:1 3918:1 
0.3603098638413579 29:1 67:1 78:1 143:1 198:1 246:1 346:1 635:1 637:1 792:1 1460:1 2229:1 3307:1 3922:1 3923:1 3924:1 
0.4106623021542768 148:1 156:1 583:1 1100:1 3921:1 3934:1 
0.07175664977267471 1:1 32:1 35:1 38:1 50:1 435:1 1031:1 1554:1 3935:1 3940:1 3944:1 
1 8:1 43:1 58:1 125:1 130:1 151:1 156:1 304:1 363:1 405:1 639:1 1172:1 1409:1 1646:1 1742:1 2125:1 3424:1 3936:1 3938:1 3946:1 3947:1 3948:1 
1 8:1 28:1 29:1 148:1 206:1 234:1 271:1 2125:1 3424:1 3949:1 3950:1 3951:1 3952:1 
0.7103223632058682 8:1 19:1 29:1 42:1 50:1 56:1 76:1 290:1 1011:1 1147:1 1386:1 1417:1 1460:1 1639:1 1678:1 1979:1 2229:1 2359:1 2491:1 2638:1 3214:1 3307:1 3362:1 3923:1 3940:1 3957:1 3961:1 3962:1 3963:1 3964:1 3965:1 3966:1 
1 8:1 19:1 29:1 78:1 140:1 148:1 161:1 271:1 300:1 562:1 664:1 989:1 1061:1 1266:1 1635:1 2222:1 3457:1 3932:1 3940:1 3970:1 
1 29:1 148:1 271:1 1089:1 3952:1 3972:1 
1 8:1 19:1 23:1 209:1 223:1 979:1 3973:1 
1 8:1 12:1 18:1 19:1 50:1 84:1 151:1 154:1 491:1 583:1 979:1 1509:1 1858:1 2186:1 3854:1 3986:1 3987:1 
1 12:1 125:1 434:1 854:1 970:1 979:1 1252:1 2709:1 
1 8:1 30:1 50:1 78:1 405:1 583:1 979:1 1284:1 
0.5315519875981287 38:1 43:1 45:1 56:1 78:1 124:1 125:1 149:1 213:1 245:1 293:1 491:1 627:1 902:1 3149:1 3994:1 3995:1 3996:1 3997:1 
1 8:1 42:1 78:1 124:1 140:1 198:1 639:1 641:1 851:1 872:1 2313:1 3994:1 3998:1 3999:1 
1 8:1 78:1 140:1 152:1 840:1 4024:1 4032:1 4033:1 4034:1 4035:1 4036:1 
0.3394493107097288 661:1 2576:1 4054:1 4055:1 
0.4724358086835464 8:1 19:1 78:1 96:1 117:1 152:1 190:1 227:1 276:1 332:1 376:1 424:1 699:1 989:1 1586:1 4011:1 4068:1 4069:1 4070:1 4071:1 4072:1 4073:1 
1 8:1 84:1 1283:1 1666:1 3362:1 4051:1 4055:1 4082:1 4099:1 4100:1 
0.5713164817408122 8:1 12:1 29:1 78:1 93:1 125:1 140:1 152:1 237:1 239:1 311:1 321:1 509:1 854:1 1137:1 1180:1 1483:1 1727:1 3604:1 3624:1 4048:1 4064:1 4103:1 4104:1 
0.5313488394138213 23:1 78:1 140:1 353:1 500:1 851:1 863:1 1041:1 1260:1 4114:1 
0.4970508107127093 78:1 140:1 152:1 271:1 429:1 1727:1 1837:1 3002:1 4124:1 4125:1 4126:1 4127:1 
1 8:1 19:1 29:1 30:1 35:1 121:1 148:1 265:1 863:1 1231:1 1753:1 2261:1 4127:1 4134:1 
1 84:1 1006:1 1110:1 1282:1 1594:1 
0.7154504124756882 8:1 29:1 198:1 650:1 721:1 764:1 999:1 1208:1 1594:1 1666:1 1716:1 1736:1 2116:1 2458:1 3002:1 3316:1 4147:1 4165:1 4166:1 4167:1 4168:1 4169:1 4170:1 4171:1 
0.4352699430888506 8:1 19:1 21:1 22:1 29:1 30:1 56:1 76:1 220:1 272:1 544:1 1594:1 1645:1 2116:1 2224:1 2288:1 2842:1 4147:1 4175:1 4176:1 4182:1 4183:1 4184:1 
1 12:1 67:1 107:1 263:1 721:1 1152:1 2818:1 4202:1 4203:1 
1 12:1 19:1 67:1 107:1 140:1 152:1 156:1 400:1 564:1 1940:1 2899:1 3206:1 4211:1 4212:1 4213:1 4214:1 4215:1 4216:1 
0.3047442325203276 8:1 9:1 78:1 125:1 212:1 272:1 560:1 588:1 721:1 1028:1 2481:1 3338:1 4238:1 4255:1 4269:1 4270:1 4271:1 4272:1 4273:1 4274:1 4275:1 4276:1 4277:1 
1 8:1 29:1 42:1 52:1 56:1 84:1 151:1 152:1 500:1 507:1 538:1 966:1 981:1 1009:1 1041:1 1101:1 1150:1 1731:1 1739:1 4293:1 4294:1 
0.3839912957453254 8:1 29:1 60:1 189:1 256:1 264:1 286:1 560:1 806:1 1011:1 1739:1 2396:1 4298:1 4299:1 4300:1 
0.4022611321599342 8:1 20:1 29:1 33:1 93:1 140:1 152:1 161:1 170:1 256:1 264:1 509:1 538:1 1027:1 1150:1 1592:1 1731:1 3470:1 3936:1 4217:1 4300:1 4301:1 4302:1 4303:1 4304:1 4305:1 4306:1 4307:1 
0.5223452505779276 8:1 107:1 125:1 161:1 871:1 1731:1 3424:1 3470:1 4217:1 4308:1 4309:1 4310:1 
0.461874632892691 1:1 8:1 10:1 19:1 29:1 43:1 107:1 125:1 154:1 161:1 272:1 441:1 445:1 500:1 560:1 806:1 1041:1 1739:1 2447:1 3299:1 4204:1 4217:1 4290:1 4298:1 4302:1 4330:1 
1 12:1 23:1 43:1 125:1 140:1 143:1 152:1 181:1 220:1 222:1 901:1 1010:1 2246:1 3477:1 4257:1 4336:1 4337:1 4338:1 4339:1 
0.409090657370757 8:1 19:1 29:1 50:1 58:1 151:1 243:1 272:1 395:1 457:1 837:1 2488:1 4257:1 4340:1 4341:1 
1 8:1 18:1 56:1 125:1 187:1 288:1 806:1 1027:1 1041:1 1278:1 1947:1 2447:1 2837:1 
0.3282755948115799 126:1 263:1 343:1 400:1 4200:1 4378:1 4379:1 4380:1 
1 8:1 44:1 56:1 79:1 220:1 224:1 275:1 301:1 359:1 1011:1 1041:1 1067:1 1451:1 2765:1 4396:1 4398:1 4401:1 4402:1 4403:1 4404:1 4405:1 
1 8:1 78:1 101:1 112:1 140:1 152:1 546:1 2682:1 4468:1 
0.4828747388292777 4:1 8:1 19:1 29:1 30:1 78:1 144:1 184:1 424:1 739:1 937:1 3754:1 4476:1 
0.3904422359434608 8:1 12:1 18:1 19:1 26:1 29:1 30:1 42:1 78:1 140:1 144:1 152:1 156:1 184:1 234:1 271:1 411:1 937:1 1602:1 1623:1 2852:1 3605:1 4476:1 4479:1 4480:1 4481:1 4482:1 4483:1 4484:1 4485:1 4486:1 
0.3880550966192717 148:1 207:1 270:1 447:1 902:1 1945:1 4556:1 4557:1 4558:1 4559:1 4560:1 4561:1 
1 8:1 147:1 148:1 295:1 364:1 1945:1 3750:1 4564:1 4565:1 
1 148:1 389:1 1475:1 2619:1 4579:1 
0.4809356549793532 58:1 125:1 140:1 152:1 206:1 271:1 405:1 469:1 579:1 693:1 1011:1 1864:1 2720:1 4602:1 4603:1 4604:1 4605:1 4606:1 4607:1 
0.4698808622676099 19:1 58:1 125:1 129:1 151:1 352:1 405:1 516:1 547:1 1027:1 1209:1 1236:1 1238:1 2642:1 2789:1 4014:1 4608:1 4609:1 4610:1 
0.8836075909425747 29:1 58:1 76:1 127:1 195:1 239:1 352:1 363:1 641:1 643:1 1209:1 2816:1 4601:1 4609:1 4614:1 4615:1 
1 13:1 29:1 33:1 239:1 389:1 486:1 1483:1 2720:1 4634:1 4635:1 4636:1 
0.2755866890504725 8:1 19:1 24:1 31:1 33:1 44:1 52:1 76:1 78:1 79:1 152:1 239:1 269:1 271:1 583:1 588:1 656:1 1062:1 1265:1 1649:1 2176:1 2720:1 4637:1 4638:1 
0.6943018244125367 8:1 44:1 51:1 56:1 147:1 189:1 220:1 352:1 633:1 641:1 706:1 999:1 1265:1 2376:1 2642:1 4639:1 4640:1 4641:1 4642:1 4643:1 4644:1 
0.4278556815152937 23:1 31:1 48:1 78:1 125:1 140:1 152:1 237:1 302:1 588:1 799:1 806:1 1265:1 2148:1 3133:1 4657:1 4658:1 4659:1 4660:1 
1 29:1 79:1 152:1 156:1 271:1 854:1 857:1 4604:1 4661:1 
0.5462327852126323 152:1 156:1 198:1 352:1 511:1 575:1 583:1 588:1 633:1 806:1 1265:1 2642:1 4621:1 4662:1 
0.1058071617626817 8:1 11:1 58:1 78:1 80:1 124:1 140:1 151:1 152:1 156:1 189:1 206:1 271:1 400:1 464:1 474:1 490:1 500:1 538:1 575:1 579:1 1011:1 1070:1 1278:1 1666:1 2789:1 3865:1 4354:1 4364:1 4687:1 4688:1 4689:1 4690:1 4691:1 4692:1 4693:1 
1 11:1 29:1 91:1 151:1 271:1 464:1 504:1 737:1 
1 11:1 98:1 195:1 3865:1 4694:1 
1 11:1 29:1 42:1 91:1 152:1 275:1 538:1 690:1 1165:1 1733:1 1945:1 
1 21:1 29:1 42:1 45:1 52:1 96:1 167:1 260:1 363:1 681:1 990:1 1129:1 4455:1 4717:1 4727:1 
1 8:1 15:1 18:1 19:1 78:1 84:1 172:1 271:1 583:1 930:1 1161:1 2007:1 2852:1 4762:1 4763:1 4764:1 4765:1 
1 19:1 42:1 115:1 127:1 195:1 359:1 1069:1 1837:1 4455:1 4773:1 4774:1 
1 12:1 29:1 47:1 152:1 156:1 188:1 681:1 990:1 1067:1 1069:1 2160:1 4746:1 4780:1 4808:1 4809:1 
0.4715697313888927 38:1 78:1 125:1 1070:1 2966:1 4455:1 4814:1 4815:1 4816:1 4817:1 4818:1 
1 8:1 19:1 29:1 44:1 73:1 76:1 122:1 128:1 140:1 152:1 198:1 503:1 560:1 685:1 849:1 857:1 1131:1 1527:1 1723:1 3268:1 3495:1 4819:1 
0.5628559479666506 152:1 156:1 429:1 460:1 798:1 831:1 1131:1 1192:1 4822:1 4823:1 
1 8:1 19:1 29:1 45:1 200:1 220:1 237:1 312:1 363:1 467:1 667:1 1121:1 2223:1 3589:1 4509:1 
0.7224141898674117 8:1 22:1 28:1 30:1 56:1 121:1 140:1 152:1 156:1 237:1 301:1 343:1 355:1 439:1 863:1 966:1 1006:1 1142:1 1159:1 1209:1 1260:1 2431:1 3909:1 4669:1 4866:1 4879:1 4880:1 4881:1 4882:1 4883:1 
0.6119449033807283 4:1 8:1 28:1 120:1 152:1 187:1 376:1 633:1 798:1 849:1 996:1 1662:1 2307:1 2852:1 2855:1 3057:1 3277:1 3448:1 4455:1 4456:1 4888:1 4889:1 4890:1 4891:1 
0.5405448247497353 19:1 29:1 45:1 62:1 73:1 81:1 84:1 205:1 798:1 987:1 1567:1 2852:1 3143:1 4863:1 4884:1 4892:1 
0.2424099990219427 10:1 18:1 28:1 48:1 58:1 74:1 84:1 107:1 118:1 125:1 152:1 156:1 161:1 239:1 243:1 304:1 1378:1 1723:1 2732:1 3280:1 3576:1 4206:1 4247:1 4906:1 4942:1 4946:1 4947:1 4948:1 
0.2944880850468306 8:1 18:1 28:1 29:1 35:1 38:1 46:1 50:1 51:1 76:1 78:1 121:1 125:1 127:1 142:1 158:1 161:1 167:1 220:1 239:1 256:1 275:1 547:1 633:1 964:1 1167:1 2268:1 2877:1 3139:1 5028:1 5029:1 5030:1 5031:1 5032:1 5033:1 5034:1 5035:1 
0.4807946058376373 11:1 29:1 33:1 58:1 138:1 172:1 359:1 432:1 1678:1 1741:1 5071:1 
0.3140254346706147 8:1 29:1 42:1 121:1 125:1 138:1 141:1 151:1 223:1 269:1 300:1 376:1 417:1 464:1 489:1 495:1 503:1 509:1 516:1 788:1 1399:1 1567:1 1666:1 1770:1 3316:1 4166:1 4708:1 5074:1 5090:1 5091:1 5092:1 
1 8:1 19:1 29:1 51:1 189:1 223:1 264:1 301:1 405:1 464:1 502:1 1006:1 3761:1 4166:1 4825:1 5089:1 5096:1 5097:1 
0.4135331095108922 8:1 28:1 29:1 35:1 38:1 44:1 140:1 152:1 159:1 167:1 433:1 1006:1 2284:1 4166:1 4609:1 5102:1 
1 8:1 18:1 78:1 295:1 767:1 1074:1 1727:1 2789:1 3035:1 5120:1 5121:1 5122:1 5123:1 5124:1 5125:1 
1 8:1 29:1 127:1 146:1 351:1 564:1 1736:1 2229:1 3169:1 3307:1 3497:1 3689:1 5163:1 
1 29:1 38:1 78:1 213:1 400:1 484:1 503:1 931:1 2659:1 4393:1 
0.3688142858156822 19:1 29:1 33:1 45:1 52:1 76:1 198:1 213:1 382:1 464:1 484:1 681:1 1736:1 1971:1 2852:1 3307:1 3859:1 4086:1 4393:1 5086:1 5170:1 
1 78:1 125:1 140:1 152:1 211:1 405:1 562:1 1646:1 2550:1 5175:1 5176:1 
0.3476318431941021 8:1 147:1 223:1 1646:1 1971:1 1979:1 2229:1 2852:1 3307:1 5170:1 5175:1 5176:1 5177:1 5178:1 
1 19:1 24:1 29:1 42:1 144:1 146:1 417:1 583:1 1646:1 1736:1 2229:1 2852:1 3307:1 5170:1 5176:1 5177:1 5179:1 
1 29:1 39:1 126:1 140:1 151:1 152:1 269:1 359:1 405:1 706:1 1535:1 1678:1 2229:1 3307:1 3449:1 5173:1 5175:1 5176:1 
1 29:1 343:1 400:1 683:1 1010:1 3254:1 
0.3745362184654463 8:1 12:1 29:1 78:1 101:1 140:1 152:1 271:1 581:1 1142:1 1649:1 1662:1 2086:1 2911:1 4658:1 5207:1 5210:1 5217:1 5218:1 5219:1 5220:1 5221:1 
0.4815085201541257 8:1 58:1 78:1 516:1 1867:1 1914:1 2086:1 5233:1 5250:1 5256:1 5257:1 
0.569497480123326 8:1 12:1 18:1 19:1 21:1 29:1 43:1 140:1 152:1 156:1 311:1 424:1 486:1 542:1 706:1 855:1 1251:1 2143:1 3146:1 3261:1 3492:1 3811:1 4165:1 4984:1 5259:1 5260:1 5261:1 
0.597543245116493 8:1 12:1 29:1 140:1 152:1 184:1 205:1 271:1 418:1 712:1 798:1 854:1 1123:1 1793:1 2330:1 3677:1 4867:1 4976:1 5233:1 5271:1 5272:1 5273:1 5274:1 5275:1 5276:1 5277:1 5278:1 5279:1 5280:1 
0.6095577640565393 8:1 11:1 33:1 78:1 152:1 156:1 205:1 359:1 381:1 383:1 897:1 1834:1 1910:1 2023:1 5303:1 5305:1 5306:1 5307:1 5308:1 5309:1 5310:1 
1 8:1 755:1 828:1 2150:1 5303:1 5342:1 5344:1 5345:1 
0.4468506804951307 8:1 78:1 112:1 198:1 335:1 567:1 1433:1 3913:1 5435:1 5437:1 5438:1 5439:1 
0.2622864761207526 29:1 52:1 100:1 152:1 156:1 281:1 318:1 447:1 486:1 780:1 1319:1 1570:1 3750:1 5530:1 5531:1 5532:1 5533:1 5534:1 5535:1 5536:1 
1 8:1 18:1 19:1 29:1 33:1 35:1 121:1 125:1 127:1 133:1 156:1 205:1 206:1 243:1 542:1 902:1 983:1 1142:1 1266:1 2934:1 5566:1 5567:1 5568:1 5569:1 5570:1 5571:1 5572:1 
1 18:1 19:1 29:1 33:1 38:1 44:1 78:1 81:1 205:1 383:1 434:1 500:1 560:1 983:1 1128:1 1182:1 2700:1 2934:1 5581:1 5582:1 
0.3862043454412006 8:1 19:1 26:1 29:1 30:1 33:1 42:1 78:1 136:1 140:1 141:1 150:1 152:1 159:1 205:1 286:1 509:1 1131:1 2666:1 2807:1 2934:1 5603:1 5604:1 5605:1 
0.3128216124284417 8:1 29:1 30:1 35:1 38:1 51:1 148:1 271:1 275:1 286:1 381:1 560:1 1182:1 2934:1 5610:1 5611:1 5612:1 5613:1 5614:1 
0.7062891676029687 19:1 30:1 42:1 56:1 76:1 78:1 125:1 140:1 152:1 156:1 243:1 271:1 272:1 901:1 1727:1 1837:1 2160:1 2273:1 2835:1 2934:1 3460:1 5610:1 5615:1 5617:1 5618:1 5619:1 5620:1 5621:1 5622:1 
1 8:1 29:1 35:1 38:1 125:1 290:1 560:1 767:1 2121:1 2934:1 3848:1 5610:1 5615:1 5616:1 
0.6793096181139935 19:1 38:1 78:1 84:1 125:1 152:1 156:1 157:1 163:1 170:1 321:1 813:1 2342:1 3866:1 5635:1 5636:1 5637:1 
1 29:1 38:1 135:1 148:1 151:1 205:1 264:1 287:1 389:1 690:1 877:1 1371:1 2206:1 3411:1 4535:1 5641:1 5643:1 5644:1 5645:1 
0.5873700262410823 8:1 29:1 33:1 78:1 79:1 140:1 148:1 152:1 174:1 355:1 556:1 560:1 1378:1 1409:1 1460:1 2239:1 2879:1 3307:1 4443:1 5013:1 5163:1 5672:1 5678:1 5682:1 5683:1 5684:1 5685:1 5686:1 
0.6035715054421208 8:1 29:1 125:1 149:1 159:1 271:1 286:1 429:1 665:1 2923:1 5723:1 5724:1 5725:1 5726:1 5727:1 5728:1 5729:1 5730:1 
0.6549522445084824 8:1 19:1 29:1 43:1 45:1 50:1 66:1 120:1 229:1 309:1 435:1 1478:1 2288:1 2313:1 5739:1 5740:1 5741:1 5742:1 5743:1 5744:1 
1 8:1 19:1 29:1 42:1 50:1 58:1 59:1 125:1 126:1 147:1 148:1 151:1 162:1 184:1 271:1 402:1 635:1 2278:1 2682:1 2743:1 5043:1 5729:1 5732:1 5745:1 5746:1 5747:1 5748:1 5749:1 
0.5666970855230296 14:1 29:1 33:1 78:1 140:1 152:1 271:1 3559:1 5777:1 5785:1 5786:1 5787:1 
0.5132539428884667 8:1 23:1 56:1 112:1 227:1 239:1 3096:1 4921:1 5791:1 5792:1 5793:1 
1 126:1 151:1 154:1 1071:1 3096:1 5847:1 
0.4220843556956336 8:1 29:1 33:1 101:1 168:1 302:1 1162:1 1236:1 1238:1 1837:1 3492:1 3559:1 3578:1 5866:1 5867:1 
0.4707749614832055 8:1 101:1 140:1 152:1 444:1 1954:1 1965:1 4030:1 5877:1 5885:1 5886:1 5887:1 5888:1 5889:1 5890:1 
0.3964284945578792 7:1 38:1 51:1 125:1 208:1 281:1 389:1 1054:1 5920:1 5921:1 5922:1 
1 33:1 56:1 405:1 636:1 854:1 1425:1 1606:1 5681:1 5894:1 5936:1 
0.3620458728989427 8:1 29:1 286:1 333:1 444:1 669:1 5937:1 5938:1 5939:1 5940:1 
1 29:1 444:1 1089:1 5945:1 5946:1 
1 8:1 29:1 51:1 56:1 125:1 147:1 151:1 444:1 560:1 3828:1 4354:1 4390:1 5485:1 5956:1 
0.3937781399998269 29:1 42:1 78:1 170:1 205:1 542:1 564:1 852:1 3005:1 5500:1 5999:1 6001:1 6002:1 
1 8:1 29:1 52:1 56:1 79:1 93:1 100:1 213:1 286:1 444:1 1940:1 1971:1 6017:1 6028:1 
1 8:1 19:1 29:1 148:1 151:1 213:1 227:1 271:1 439:1 444:1 462:1 1162:1 1518:1 6029:1 
1 8:1 78:1 542:1 564:1 6017:1 6035:1 
0.05304750193956131 284:1 3252:1 6044:1 6045:1 
1 8:1 29:1 151:1 278:1 1206:1 1436:1 3596:1 
0.4126299737589177 8:1 78:1 140:1 152:1 265:1 853:1 1197:1 1510:1 2257:1 3060:1 4030:1 6071:1 6072:1 6073:1 6074:1 6075:1 6076:1 
0.4332219822755154 8:1 11:1 19:1 29:1 54:1 78:1 150:1 195:1 199:1 206:1 332:1 441:1 444:1 462:1 521:1 2315:1 2732:1 3304:1 5825:1 6039:1 6081:1 6086:1 6091:1 6110:1 6111:1 
0.1181332023177515 8:1 19:1 29:1 42:1 44:1 48:1 117:1 125:1 148:1 152:1 156:1 261:1 359:1 444:1 538:1 983:1 1035:1 2273:1 2835:1 6101:1 6125:1 6138:1 6139:1 
1 8:1 19:1 84:1 151:1 152:1 359:1 394:1 484:1 718:1 754:1 1543:1 1642:1 3312:1 3411:1 3930:1 6037:1 6154:1 6155:1 6156:1 6157:1 6158:1 
0.513410847553474 8:1 34:1 56:1 189:1 394:1 544:1 999:1 3307:1 3377:1 4539:1 6209:1 6210:1 6211:1 
1 33:1 44:1 84:1 151:1 156:1 484:1 718:1 1120:1 2521:1 5173:1 
0.07716828422773642 29:1 151:1 152:1 156:1 466:1 476:1 496:1 718:1 1451:1 2395:1 2700:1 2952:1 3622:1 5085:1 6214:1 6215:1 6223:1 6224:1 
0.3451221948716861 9:1 19:1 29:1 151:1 152:1 854:1 1031:1 1770:1 1836:1 2926:1 3787:1 3930:1 5173:1 6214:1 6242:1 6243:1 
0.3481177440646043 8:1 29:1 42:1 59:1 134:1 192:1 544:1 863:1 928:1 1089:1 3485:1 3596:1 6247:1 6248:1 
1 8:1 11:1 117:1 120:1 140:1 152:1 313:1 389:1 560:1 6254:1 6255:1 
0.2656199105562513 8:1 121:1 151:1 209:1 237:1 355:1 467:1 498:1 560:1 831:1 852:1 871:1 1180:1 2125:1 3338:1 3598:1 3622:1 3886:1 6184:1 6190:1 6261:1 
1 8:1 29:1 35:1 38:1 42:1 51:1 55:1 101:1 125:1 227:1 1171:1 1194:1 1719:1 3338:1 6250:1 6253:1 6261:1 6290:1 6293:1 
1 8:1 11:1 44:1 76:1 78:1 125:1 444:1 486:1 990:1 2852:1 3096:1 3704:1 3980:1 4268:1 6320:1 6321:1 
1 8:1 78:1 149:1 195:1 205:1 398:1 405:1 441:1 531:1 840:1 976:1 990:1 1095:1 3057:1 3307:1 5912:1 6330:1 6331:1 6332:1 6333:1 6334:1 6335:1 
1 8:1 78:1 198:1 854:1 6327:1 6343:1 6344:1 
1 8:1 11:1 42:1 64:1 137:1 140:1 146:1 152:1 195:1 239:1 286:1 300:1 343:1 981:1 1353:1 2723:1 2839:1 3420:1 3721:1 4123:1 5681:1 6354:1 
0.6540962064470014 1:1 8:1 19:1 29:1 42:1 43:1 74:1 135:1 152:1 156:1 264:1 271:1 343:1 405:1 424:1 542:1 560:1 681:1 853:1 854:1 981:1 1041:1 1260:1 6372:1 6373:1 6374:1 
1 8:1 29:1 78:1 140:1 152:1 159:1 290:1 343:1 389:1 981:1 2278:1 2510:1 6375:1 6382:1 6383:1 6384:1 6385:1 6386:1 
1 8:1 29:1 78:1 111:1 121:1 158:1 161:1 163:1 172:1 198:1 269:1 273:1 302:1 398:1 581:1 1004:1 1110:1 1768:1 2160:1 3193:1 4754:1 6391:1 6392:1 6399:1 6400:1 
1 8:1 23:1 29:1 125:1 126:1 148:1 158:1 161:1 172:1 206:1 273:1 343:1 398:1 441:1 560:1 3596:1 6395:1 6396:1 6410:1 6411:1 
0.2432764717298159 8:1 11:1 12:1 29:1 38:1 39:1 78:1 152:1 156:1 209:1 237:1 343:1 504:1 542:1 767:1 881:1 1342:1 2175:1 3035:1 3852:1 4854:1 6429:1 6434:1 6435:1 6436:1 6437:1 6438:1 6439:1 6440:1 6441:1 
0.3866516957378818 12:1 33:1 42:1 56:1 78:1 198:1 405:1 500:1 542:1 641:1 1041:1 1053:1 1600:1 4571:1 5664:1 6446:1 6447:1 6448:1 6449:1 
0.4099282254629739 78:1 140:1 151:1 152:1 271:1 376:1 1011:1 1054:1 2640:1 2682:1 4364:1 5681:1 6457:1 
0.4288860340167421 8:1 23:1 140:1 152:1 389:1 400:1 1009:1 1473:1 2486:1 2840:1 6467:1 6484:1 6486:1 
0.351121900141502 28:1 29:1 30:1 78:1 98:1 127:1 138:1 140:1 152:1 167:1 449:1 497:1 500:1 583:1 798:1 863:1 870:1 990:1 1006:1 1074:1 1695:1 1698:1 2226:1 2820:1 3529:1 4145:1 
0.3205371756331469 8:1 29:1 99:1 120:1 264:1 271:1 667:1 1011:1 1089:1 6517:1 6523:1 6533:1 6534:1 
0.5688805158858836 8:1 44:1 125:1 151:1 271:1 288:1 290:1 538:1 3596:1 6515:1 6523:1 6535:1 6536:1 
1 8:1 29:1 143:1 158:1 201:1 206:1 271:1 544:1 927:1 1049:1 3540:1 
0.513385512964234 8:1 28:1 389:1 411:1 1049:1 1426:1 1702:1 2090:1 6541:1 6563:1 6564:1 
0.5499441703108419 754:1 1420:1 1451:1 1971:1 4314:1 5533:1 6572:1 6573:1 
0.1820604410841469 8:1 78:1 100:1 138:1 1433:1 2904:1 3598:1 4445:1 6587:1 6588:1 6589:1 6590:1 6591:1 
1 19:1 29:1 43:1 78:1 84:1 195:1 1241:1 3809:1 6450:1 6598:1 6599:1 6600:1 6601:1 
0.2613096115841025 8:1 460:1 1107:1 2348:1 3597:1 6571:1 
0.8846756417832105 8:1 19:1 29:1 140:1 148:1 152:1 346:1 348:1 855:1 901:1 1152:1 2348:1 2932:1 3588:1 3617:1 3618:1 3812:1 5686:1 6571:1 6612:1 6613:1 6614:1 
1 239:1 1293:1 1618:1 2208:1 2348:1 2932:1 2934:1 6616:1 6617:1 6618:1 6619:1 6620:1 
1 152:1 156:1 581:1 
1 14:1 389:1 657:1 1367:1 2934:1 3431:1 6645:1 
1 12:1 29:1 321:1 6652:1 
1 8:1 34:1 43:1 125:1 227:1 272:1 627:1 981:1 1252:1 1775:1 2631:1 6677:1 
1 8:1 18:1 28:1 29:1 34:1 56:1 78:1 81:1 127:1 190:1 486:1 1006:1 1010:1 2122:1 2460:1 3061:1 3343:1 4799:1 6552:1 6714:1 
0.1673963986610927 8:1 29:1 140:1 152:1 271:1 581:1 664:1 1090:1 1091:1 1206:1 1473:1 1723:1 3485:1 5772:1 6705:1 6734:1 6735:1 
1 8:1 11:1 19:1 29:1 35:1 42:1 50:1 73:1 78:1 79:1 121:1 140:1 147:1 149:1 159:1 193:1 206:1 469:1 681:1 1140:1 1284:1 1317:1 1330:1 1597:1 2227:1 2231:1 2715:1 2717:1 2855:1 2978:1 4174:1 6748:1 6749:1 6750:1 6751:1 
0.8179395589158531 8:1 29:1 33:1 48:1 234:1 312:1 564:1 841:1 972:1 1353:1 3057:1 6622:1 6773:1 6774:1 6775:1 
0.6857745377366032 64:1 78:1 125:1 130:1 140:1 163:1 284:1 1124:1 1451:1 2539:1 6792:1 6799:1 6800:1 6801:1 6802:1 6803:1 6804:1 6805:1 
0.3688778906236018 8:1 19:1 21:1 23:1 29:1 43:1 56:1 78:1 84:1 121:1 140:1 142:1 150:1 152:1 156:1 198:1 286:1 355:1 564:1 785:1 828:1 870:1 1059:1 1072:1 1266:1 1940:1 2536:1 2540:1 2895:1 2945:1 3010:1 6806:1 6807:1 6808:1 6809:1 6810:1 6811:1 6812:1 6813:1 6814:1 
0.2769242330391198 8:1 12:1 19:1 32:1 56:1 78:1 84:1 121:1 141:1 167:1 286:1 302:1 394:1 416:1 605:1 1035:1 1195:1 1694:1 2789:1 2978:1 5964:1 6850:1 
0.5516950460678809 28:1 30:1 35:1 52:1 56:1 121:1 127:1 511:1 547:1 1041:1 1099:1 1140:1 2576:1 3375:1 4154:1 6931:1 6932:1 6933:1 
0.3002169148003841 8:1 86:1 140:1 152:1 189:1 220:1 295:1 359:1 460:1 587:1 706:1 1006:1 1343:1 1371:1 1837:1 6912:1 6940:1 6941:1 6942:1 6943:1 6944:1 6945:1 6946:1 6947:1 6948:1 
1 8:1 120:1 583:1 1009:1 4174:1 6116:1 6960:1 
1 272:1 583:1 3757:1 6958:1 
1 29:1 30:1 389:1 786:1 789:1 854:1 862:1 1004:1 1388:1 
1 12:1 121:1 124:1 295:1 786:1 1011:1 2351:1 2352:1 2353:1 6986:1 6988:1 
1 786:1 1011:1 2352:1 6987:1 6993:1 
1 19:1 29:1 141:1 786:1 1914:1 2030:1 2095:1 2122:1 2150:1 
0.9855848369984599 12:1 29:1 84:1 286:1 786:1 789:1 854:1 2127:1 2952:1 6986:1 6987:1 
1 29:1 141:1 286:1 789:1 1388:1 2127:1 
1 8:1 29:1 42:1 117:1 141:1 198:1 286:1 650:1 789:1 794:1 1158:1 1388:1 6067:1 6990:1 6997:1 
1 29:1 789:1 892:1 1011:1 1388:1 3188:1 
0.6951583527042658 18:1 21:1 56:1 84:1 150:1 440:1 650:1 789:1 2825:1 7010:1 
1 18:1 57:1 62:1 84:1 127:1 151:1 440:1 500:1 789:1 1041:1 1126:1 7008:1 
0.5067459821509399 19:1 30:1 45:1 84:1 107:1 150:1 259:1 516:1 583:1 1641:1 3092:1 5635:1 7016:1 
0.5823719556704136 11:1 19:1 29:1 138:1 660:1 851:1 1797:1 5040:1 7029:1 7031:1 7032:1 7033:1 7034:1 7035:1 7036:1 
0.8775230272314856 42:1 78:1 125:1 140:1 151:1 152:1 156:1 174:1 187:1 193:1 206:1 271:1 937:1 2447:1 7027:1 7029:1 
0.2219900483755501 14:1 58:1 78:1 140:1 849:1 872:1 2542:1 7047:1 7048:1 7049:1 7050:1 7051:1 
0.3056981755874633 42:1 118:1 229:1 318:1 990:1 1056:1 1635:1 1797:1 2261:1 2411:1 7077:1 7078:1 7079:1 7080:1 7081:1 
1 8:1 52:1 78:1 140:1 152:1 167:1 641:1 938:1 1283:1 1941:1 1995:1 2084:1 2422:1 3057:1 6463:1 6926:1 7083:1 
0.6363274271628554 8:1 29:1 84:1 143:1 213:1 271:1 402:1 641:1 683:1 1283:1 7072:1 7086:1 
0.3125974338575161 111:1 121:1 140:1 152:1 302:1 312:1 581:1 641:1 1849:1 2084:1 3353:1 4077:1 5574:1 7103:1 7104:1 7105:1 7106:1 
0.4398285029500986 8:1 29:1 205:1 275:1 312:1 315:1 858:1 937:1 970:1 3232:1 7103:1 7113:1 7118:1 7119:1 
0.02004514253778433 8:1 152:1 156:1 206:1 312:1 581:1 731:1 1083:1 1920:1 4063:1 7110:1 7127:1 7128:1 
0.6522177526635429 187:1 453:1 583:1 1371:1 3362:1 4747:1 7104:1 7171:1 7172:1 7173:1 
0.2012091239139427 29:1 220:1 312:1 1914:1 2694:1 5248:1 7104:1 7174:1 7175:1 
1 12:1 29:1 38:1 98:1 100:1 148:1 287:1 423:1 505:1 2127:1 2981:1 4393:1 4396:1 7181:1 7187:1 7194:1 7195:1 7196:1 
0.9363205812065959 29:1 30:1 148:1 150:1 151:1 152:1 156:1 211:1 271:1 417:1 581:1 1666:1 1736:1 2391:1 2651:1 4396:1 4721:1 7234:1 
0.6845065959927736 78:1 140:1 152:1 170:1 460:1 641:1 2112:1 2131:1 3626:1 5390:1 6350:1 7256:1 7257:1 7258:1 7259:1 
1 29:1 55:1 156:1 212:1 234:1 629:1 798:1 1100:1 1147:1 1698:1 1905:1 6120:1 7290:1 7291:1 7292:1 7293:1 7294:1 
0.6864236362874871 34:1 50:1 152:1 156:1 205:1 1342:1 1442:1 1451:1 2638:1 3449:1 7307:1 7308:1 
0.5020030892676697 8:1 83:1 405:1 416:1 1441:1 2224:1 3626:1 7315:1 7317:1 7318:1 7319:1 
0.6441165954594801 19:1 29:1 56:1 128:1 152:1 321:1 588:1 1161:1 1268:1 2158:1 2252:1 7344:1 
1 8:1 78:1 170:1 195:1 198:1 333:1 441:1 516:1 581:1 831:1 1512:1 2481:1 3671:1 6158:1 7324:1 7365:1 7366:1 7367:1 7368:1 
0.35588340454052 29:1 121:1 138:1 152:1 156:1 355:1 421:1 504:1 877:1 1268:1 2682:1 3057:1 3626:1 5951:1 7322:1 7394:1 7395:1 7396:1 
1 8:1 10:1 12:1 121:1 275:1 287:1 355:1 421:1 877:1 1077:1 1358:1 3626:1 7266:1 
1 140:1 152:1 1028:1 7416:1 
1 286:1 405:1 416:1 627:1 639:1 1234:1 1967:1 2307:1 4063:1 4268:1 4516:1 
0.423417376199496 33:1 96:1 198:1 234:1 650:1 764:1 871:1 2307:1 7451:1 7453:1 
1 8:1 78:1 96:1 172:1 206:1 207:1 355:1 652:1 959:1 1126:1 1699:1 2307:1 3409:1 3848:1 7468:1 7469:1 7470:1 
1 8:1 19:1 29:1 33:1 52:1 56:1 76:1 84:1 115:1 150:1 152:1 167:1 209:1 273:1 444:1 564:1 578:1 917:1 1159:1 1161:1 1330:1 1586:1 2816:1 3025:1 3111:1 7042:1 7508:1 7509:1 
1 8:1 29:1 79:1 167:1 168:1 273:1 444:1 1010:1 1330:1 1891:1 2229:1 2284:1 6125:1 
0.4866144870357661 1:1 8:1 29:1 117:1 143:1 147:1 151:1 290:1 636:1 1010:1 2229:1 5802:1 7521:1 7532:1 7533:1 7534:1 
0.3915921278282447 8:1 29:1 143:1 343:1 400:1 500:1 683:1 1089:1 5176:1 7537:1 7538:1 7539:1 7540:1 7541:1 7542:1 7543:1 
1 8:1 19:1 29:1 90:1 148:1 150:1 151:1 271:1 359:1 901:1 970:1 1976:1 5722:1 7545:1 7546:1 
1 8:1 29:1 33:1 48:1 50:1 78:1 173:1 364:1 901:1 970:1 1853:1 2533:1 2631:1 7545:1 7557:1 7558:1 
1 8:1 19:1 29:1 33:1 56:1 78:1 189:1 405:1 486:1 2533:1 3837:1 7564:1 7565:1 7566:1 7567:1 
0.5696151101034299 29:1 101:1 107:1 143:1 206:1 271:1 537:1 768:1 4564:1 7545:1 7568:1 7569:1 
0.4457440160047899 11:1 33:1 38:1 78:1 84:1 121:1 209:1 239:1 374:1 399:1 411:1 463:1 852:1 901:1 930:1 1422:1 1945:1 2499:1 2943:1 3031:1 4506:1 5267:1 7600:1 
0.5236539375363455 8:1 33:1 76:1 84:1 96:1 121:1 149:1 159:1 206:1 433:1 434:1 440:1 486:1 987:1 1278:1 1640:1 2715:1 3060:1 5907:1 6743:1 7633:1 7634:1 
0.5075093899771448 8:1 19:1 78:1 288:1 434:1 440:1 681:1 1409:1 2231:1 2717:1 3262:1 7642:1 7643:1 7645:1 
0.417990429805298 29:1 33:1 51:1 58:1 128:1 140:1 152:1 156:1 321:1 462:1 718:1 1184:1 1187:1 5265:1 6027:1 7652:1 7653:1 7654:1 
1 8:1 19:1 29:1 78:1 121:1 144:1 152:1 213:1 321:1 355:1 440:1 462:1 1586:1 1781:1 1784:1 1876:1 3030:1 3262:1 7643:1 7663:1 7664:1 7665:1 
1 125:1 158:1 161:1 172:1 389:1 718:1 6030:1 7670:1 7671:1 
1 140:1 152:1 718:1 1949:1 6030:1 7672:1 
0.411127089123748 32:1 47:1 84:1 151:1 785:1 1028:1 1949:1 6025:1 6048:1 7686:1 
0.3070122810376399 19:1 29:1 67:1 84:1 118:1 125:1 147:1 148:1 151:1 152:1 265:1 424:1 444:1 583:1 881:1 1312:1 1586:1 2261:1 2832:1 4708:1 6048:1 7687:1 7688:1 
0.4094586900214827 7:1 8:1 19:1 29:1 50:1 706:1 1183:1 2289:1 3030:1 3554:1 7691:1 7697:1 7698:1 
1 8:1 19:1 44:1 147:1 206:1 304:1 355:1 405:1 465:1 504:1 521:1 637:1 1094:1 1528:1 2235:1 4516:1 5247:1 7699:1 7700:1 
1 24:1 50:1 76:1 96:1 234:1 293:1 312:1 902:1 976:1 1308:1 2099:1 2101:1 4520:1 7710:1 
0.2266908299379322 8:1 19:1 78:1 117:1 206:1 321:1 581:1 584:1 870:1 999:1 5216:1 7713:1 7714:1 7715:1 7716:1 7717:1 7718:1 
0.6026293122852525 19:1 29:1 141:1 156:1 173:1 243:1 405:1 504:1 575:1 712:1 902:1 
0.6084078721717553 8:1 29:1 50:1 148:1 172:1 295:1 500:1 546:1 627:1 683:1 3339:1 4560:1 4782:1 5891:1 7729:1 7730:1 
0.599646032037511 29:1 30:1 33:1 78:1 115:1 125:1 140:1 147:1 192:1 327:1 469:1 491:1 538:1 661:1 686:1 798:1 872:1 1567:1 1612:1 2915:1 3139:1 4774:1 7743:1 7744:1 7745:1 7746:1 7747:1 7748:1 
0.7244133109495275 19:1 29:1 78:1 140:1 152:1 156:1 213:1 271:1 278:1 293:1 301:1 1011:1 1029:1 1162:1 1736:1 2261:1 2460:1 3875:1 4782:1 5749:1 7756:1 7757:1 
0.7649108213799577 7:1 8:1 29:1 33:1 40:1 44:1 77:1 99:1 143:1 205:1 209:1 261:1 416:1 469:1 484:1 564:1 711:1 712:1 855:1 979:1 1858:1 1891:1 2195:1 3700:1 3875:1 4343:1 4913:1 5538:1 7726:1 7758:1 7759:1 7760:1 
1 18:1 29:1 30:1 78:1 140:1 150:1 151:1 152:1 158:1 161:1 405:1 2446:1 7778:1 
1 8:1 19:1 28:1 29:1 30:1 34:1 35:1 38:1 78:1 127:1 227:1 583:1 948:1 981:1 990:1 4290:1 6503:1 7773:1 7789:1 7790:1 
0.5412723174264235 19:1 29:1 56:1 129:1 172:1 290:1 332:1 690:1 1272:1 1404:1 2535:1 2537:1 7804:1 7805:1 7806:1 7807:1 7808:1 7809:1 7810:1 
0.4070299757877884 8:1 417:1 1062:1 2535:1 2537:1 4361:1 7622:1 7804:1 7811:1 7812:1 7813:1 7814:1 
0.2949926653557178 15:1 29:1 33:1 78:1 115:1 121:1 141:1 252:1 287:1 302:1 2160:1 3456:1 3854:1 5710:1 6781:1 7824:1 7826:1 
1 8:1 29:1 30:1 38:1 42:1 271:1 287:1 389:1 441:1 560:1 1206:1 1426:1 1473:1 7837:1 
1 8:1 28:1 33:1 84:1 127:1 146:1 444:1 1388:1 
1 8:1 18:1 19:1 29:1 117:1 158:1 161:1 198:1 229:1 312:1 504:1 635:1 641:1 902:1 2905:1 5574:1 7867:1 7868:1 
1 8:1 56:1 78:1 111:1 125:1 158:1 161:1 174:1 234:1 275:1 376:1 690:1 767:1 768:1 1172:1 1640:1 1837:1 3020:1 4506:1 7873:1 7874:1 7875:1 7877:1 7881:1 7882:1 7883:1 7884:1 7885:1 
1 8:1 43:1 78:1 158:1 161:1 275:1 768:1 798:1 1172:1 1736:1 7877:1 
0.6874025661424839 7:1 12:1 56:1 67:1 101:1 140:1 149:1 152:1 198:1 402:1 405:1 938:1 1180:1 1183:1 2925:1 6901:1 7105:1 7890:1 
0.5669983161896925 8:1 19:1 43:1 304:1 389:1 641:1 840:1 1865:1 2219:1 4220:1 5567:1 5568:1 7891:1 
0.2933863307553013 8:1 148:1 149:1 384:1 831:1 938:1 1562:1 1729:1 2682:1 5537:1 5782:1 5891:1 7892:1 7912:1 7920:1 7921:1 7922:1 
0.634028227914351 12:1 19:1 29:1 149:1 152:1 239:1 363:1 376:1 433:1 469:1 475:1 798:1 1208:1 1652:1 2772:1 3465:1 4297:1 4508:1 4516:1 4569:1 5825:1 7043:1 7892:1 7923:1 7924:1 
1 126:1 1945:1 5354:1 7933:1 7934:1 
1 19:1 29:1 52:1 66:1 84:1 511:1 1583:1 2668:1 2939:1 7041:1 7069:1 7943:1 
1 30:1 389:1 416:1 1062:1 2071:1 7944:1 
1 29:1 56:1 140:1 152:1 233:1 2084:1 2721:1 6968:1 7763:1 7764:1 7765:1 7766:1 7946:1 
0.2642487668582688 50:1 78:1 140:1 152:1 477:1 752:1 851:1 1069:1 2178:1 2261:1 2288:1 2470:1 2484:1 3528:1 4146:1 4382:1 7951:1 7952:1 7953:1 7954:1 
1 12:1 25:1 29:1 148:1 158:1 161:1 273:1 339:1 500:1 1961:1 2400:1 2640:1 2929:1 3246:1 5012:1 7959:1 
0.2819565452213426 18:1 21:1 30:1 76:1 96:1 140:1 152:1 158:1 161:1 237:1 405:1 500:1 951:1 1041:1 1053:1 1512:1 2178:1 4571:1 5897:1 7963:1 7964:1 7965:1 
0.5805242822164944 8:1 18:1 19:1 29:1 35:1 38:1 52:1 158:1 161:1 363:1 507:1 656:1 948:1 1006:1 1697:1 2207:1 4844:1 4872:1 6425:1 7080:1 7167:1 7975:1 7976:1 7977:1 7978:1 7979:1 
0.5140474961433084 8:1 78:1 101:1 140:1 152:1 168:1 227:1 364:1 376:1 405:1 509:1 538:1 863:1 1011:1 1095:1 1171:1 2965:1 3096:1 4484:1 4486:1 5057:1 6125:1 8006:1 8007:1 8008:1 8009:1 8010:1 8011:1 8012:1 8013:1 
0.3051813159833229 29:1 98:1 302:1 767:1 937:1 1056:1 1971:1 2129:1 2610:1 4696:1 5453:1 6118:1 8037:1 8038:1 8039:1 8040:1 8041:1 
0.2790912943033276 29:1 81:1 117:1 125:1 152:1 156:1 272:1 767:1 798:1 990:1 1170:1 1174:1 1663:1 2610:1 8040:1 8041:1 8047:1 
0.3956171268309805 12:1 100:1 156:1 767:1 1056:1 1062:1 1641:1 2145:1 2610:1 2818:1 3035:1 6118:1 8040:1 8059:1 8062:1 8063:1 8064:1 
1 125:1 126:1 3598:1 6900:1 8082:1 8095:1 
1 19:1 29:1 44:1 45:1 56:1 84:1 120:1 942:1 1074:1 1635:1 3343:1 3578:1 4143:1 4597:1 8079:1 8096:1 8104:1 8105:1 8106:1 
1 19:1 29:1 144:1 184:1 937:1 1341:1 1853:1 2410:1 4142:1 4143:1 8079:1 
0.576582623800504 24:1 42:1 76:1 152:1 156:1 227:1 1142:1 3025:1 3930:1 7625:1 8096:1 8108:1 
1 8:1 11:1 18:1 19:1 55:1 84:1 118:1 288:1 331:1 706:1 1681:1 2239:1 8109:1 
0.4012880557385072 389:1 400:1 1193:1 2410:1 4143:1 8078:1 8079:1 8097:1 8119:1 8120:1 
1 29:1 150:1 234:1 249:1 271:1 288:1 564:1 587:1 1278:1 3307:1 4412:1 8168:1 
0.5879773609118233 19:1 20:1 29:1 78:1 84:1 234:1 564:1 583:1 2214:1 3307:1 3424:1 3854:1 8142:1 8145:1 8169:1 8170:1 8171:1 8172:1 8173:1 
0.6017067943239769 29:1 78:1 115:1 140:1 142:1 143:1 152:1 429:1 496:1 575:1 583:1 1041:1 1320:1 3110:1 4113:1 4176:1 4609:1 4664:1 8184:1 8185:1 8186:1 8187:1 8188:1 8189:1 
1 29:1 76:1 148:1 271:1 1371:1 1510:1 4176:1 8204:1 8206:1 8207:1 8208:1 
0.3231853756281495 8:1 29:1 91:1 150:1 156:1 237:1 721:1 1100:1 2121:1 3277:1 3485:1 4176:1 4664:1 5561:1 8209:1 8210:1 
1 140:1 152:1 211:1 486:1 1092:1 1170:1 3485:1 7244:1 8196:1 8225:1 8226:1 
1 56:1 211:1 
0.6899429844945509 56:1 84:1 98:1 121:1 150:1 152:1 156:1 211:1 280:1 355:1 1129:1 1510:1 4667:1 7042:1 8096:1 8225:1 8246:1 8247:1 
0.6439019616920403 8:1 44:1 152:1 184:1 286:1 1492:1 1586:1 5490:1 8196:1 8235:1 8254:1 8255:1 8256:1 
0.5762706732290418 8:1 24:1 78:1 190:1 201:1 239:1 542:1 788:1 1398:1 2487:1 3521:1 8297:1 8300:1 8305:1 8306:1 8307:1 8308:1 
0.02303489898216909 8:1 78:1 125:1 140:1 150:1 151:1 193:1 239:1 290:1 635:1 922:1 983:1 1162:1 1195:1 1330:1 
1 19:1 29:1 42:1 56:1 84:1 120:1 126:1 143:1 151:1 635:1 788:1 1460:1 1646:1 3307:1 3435:1 4406:1 8155:1 8319:1 
0.27669694305017 19:1 29:1 64:1 81:1 127:1 200:1 239:1 281:1 411:1 6883:1 8328:1 8336:1 8337:1 8338:1 8339:1 8340:1 
0.3945216563035254 8:1 35:1 38:1 64:1 151:1 198:1 1054:1 1095:1 1099:1 1674:1 3221:1 3959:1 4406:1 5096:1 8321:1 8342:1 8343:1 8345:1 8346:1 
1 8:1 28:1 29:1 44:1 51:1 125:1 148:1 181:1 281:1 300:1 683:1 858:1 1006:1 1010:1 2876:1 6525:1 
1 8:1 19:1 29:1 38:1 39:1 51:1 78:1 206:1 223:1 287:1 1061:1 1071:1 1248:1 1388:1 1664:1 3991:1 4303:1 8075:1 
1 19:1 39:1 76:1 84:1 121:1 174:1 181:1 205:1 220:1 287:1 321:1 1476:1 1666:1 
1 8:1 30:1 35:1 38:1 126:1 140:1 150:1 152:1 205:1 262:1 264:1 3841:1 8142:1 8397:1 8402:1 8426:1 8427:1 
1 8:1 18:1 29:1 34:1 39:1 42:1 93:1 154:1 223:1 284:1 1837:1 2071:1 2376:1 2631:1 3035:1 7011:1 8429:1 8430:1 8431:1 
0.3283012480041693 19:1 29:1 130:1 138:1 151:1 181:1 273:1 288:1 1330:1 6491:1 8435:1 8442:1 8443:1 
1 8:1 227:1 1010:1 1041:1 4609:1 6409:1 7887:1 8473:1 8474:1 
1 8:1 28:1 127:1 129:1 150:1 152:1 376:1 500:1 862:1 1006:1 1027:1 6409:1 6491:1 6937:1 8475:1 8476:1 
1 8:1 19:1 51:1 84:1 209:1 399:1 1388:1 3700:1 6623:1 8479:1 8480:1 8481:1 
1 8:1 56:1 78:1 84:1 120:1 121:1 170:1 172:1 195:1 220:1 339:1 355:1 2084:1 2966:1 4208:1 5635:1 8485:1 
1 8:1 21:1 29:1 39:1 43:1 58:1 76:1 98:1 122:1 140:1 152:1 156:1 205:1 538:1 706:1 1099:1 1165:1 1246:1 1460:1 1643:1 1741:1 3125:1 3413:1 8517:1 8518:1 8519:1 
0.7105692918113318 8:1 10:1 76:1 78:1 101:1 122:1 125:1 271:1 321:1 587:1 854:1 857:1 1099:1 1192:1 3508:1 8502:1 8507:1 8520:1 8521:1 8522:1 8523:1 
0.3304413275467765 76:1 152:1 156:1 195:1 564:1 2131:1 4607:1 6673:1 8453:1 8494:1 8520:1 8543:1 8544:1 8545:1 8546:1 8547:1 8548:1 
0.6485923776626116 8:1 11:1 18:1 21:1 45:1 51:1 56:1 76:1 96:1 125:1 140:1 152:1 156:1 158:1 161:1 190:1 234:1 288:1 440:1 706:1 1029:1 2429:1 2910:1 3384:1 5120:1 7245:1 8566:1 8578:1 
1 8:1 78:1 148:1 767:1 2313:1 2852:1 8585:1 
0.4712283762306251 42:1 101:1 389:1 892:1 1071:1 1095:1 1333:1 3085:1 4742:1 8432:1 8589:1 8590:1 
0.5336511918063881 8:1 81:1 84:1 118:1 121:1 211:1 321:1 332:1 348:1 359:1 381:1 497:1 993:1 1055:1 1170:1 2535:1 3509:1 7804:1 7811:1 7813:1 7821:1 8605:1 8606:1 8607:1 8608:1 8609:1 8610:1 
0.5746036636233062 8:1 19:1 29:1 64:1 67:1 76:1 78:1 99:1 124:1 126:1 198:1 205:1 206:1 213:1 560:1 1183:1 1293:1 1770:1 2087:1 4551:1 8625:1 8626:1 8627:1 
0.4857457486036993 29:1 30:1 78:1 79:1 99:1 124:1 138:1 140:1 152:1 156:1 170:1 181:1 200:1 220:1 286:1 405:1 416:1 441:1 901:1 1101:1 1293:1 1837:1 1839:1 2192:1 4033:1 7804:1 7814:1 7849:1 8618:1 8626:1 8644:1 8645:1 8646:1 
0.2277045285238395 10:1 29:1 67:1 76:1 99:1 195:1 286:1 901:1 1009:1 1105:1 1183:1 1770:1 2087:1 3936:1 4994:1 7802:1 7804:1 7816:1 7819:1 7820:1 7821:1 
1 8:1 29:1 38:1 56:1 78:1 81:1 140:1 152:1 184:1 211:1 287:1 312:1 681:1 871:1 2067:1 3485:1 4033:1 7837:1 7838:1 7841:1 7842:1 7843:1 7844:1 8658:1 8659:1 8660:1 
0.5929138572129895 8:1 29:1 42:1 129:1 146:1 288:1 400:1 441:1 587:1 683:1 1426:1 1473:1 2088:1 2090:1 2391:1 2613:1 3006:1 3485:1 3540:1 4510:1 7842:1 8651:1 8660:1 8679:1 8680:1 8681:1 
0.4510849501206808 15:1 19:1 28:1 29:1 33:1 35:1 51:1 52:1 56:1 96:1 103:1 150:1 206:1 239:1 243:1 295:1 321:1 1041:1 1168:1 1658:1 2261:1 8688:1 
0.4916591769385511 8:1 15:1 19:1 29:1 56:1 239:1 271:1 272:1 321:1 854:1 1131:1 2195:1 3389:1 4257:1 4343:1 
0.6956091720350616 33:1 42:1 52:1 56:1 198:1 1308:1 1327:1 1483:1 1798:1 1850:1 2245:1 3943:1 7109:1 8710:1 8711:1 8714:1 
0.298706193304404 8:1 19:1 29:1 30:1 33:1 34:1 118:1 126:1 147:1 150:1 184:1 198:1 205:1 227:1 264:1 273:1 661:1 854:1 981:1 6113:1 7109:1 8708:1 8709:1 8722:1 8724:1 8725:1 8726:1 8727:1 
0.5647300569111494 8:1 19:1 29:1 54:1 56:1 76:1 129:1 144:1 170:1 315:1 321:1 339:1 767:1 857:1 996:1 1876:1 2224:1 2791:1 2797:1 4077:1 6025:1 7103:1 
0.5557798872454849 29:1 78:1 137:1 140:1 150:1 152:1 220:1 245:1 271:1 405:1 503:1 516:1 583:1 970:1 990:1 1591:1 2460:1 3628:1 8759:1 8760:1 8761:1 
1 8:1 29:1 127:1 148:1 150:1 271:1 363:1 853:1 970:1 1760:1 2939:1 3628:1 5726:1 7154:1 
0.5531493195048693 8:1 29:1 93:1 315:1 2619:1 7150:1 8770:1 8771:1 
1 148:1 
0.6259223065341292 8:1 78:1 237:1 286:1 383:1 405:1 2359:1 2638:1 6593:1 7435:1 8802:1 8804:1 8816:1 8817:1 8818:1 
1 8:1 212:1 2447:1 3539:1 3540:1 3543:1 8796:1 8822:1 8828:1 
0.6303485249357429 8:1 29:1 120:1 125:1 200:1 364:1 1210:1 1442:1 2447:1 6593:1 8809:1 8810:1 8822:1 8829:1 
0.554116926610549 19:1 29:1 84:1 138:1 151:1 156:1 459:1 467:1 511:1 1949:1 4609:1 6488:1 8836:1 
0.3942881537347281 8:1 19:1 29:1 44:1 73:1 118:1 129:1 143:1 151:1 159:1 295:1 359:1 389:1 538:1 1011:1 1061:1 2426:1 3307:1 4238:1 6384:1 8851:1 
1 78:1 140:1 152:1 491:1 917:1 8867:1 8870:1 8871:1 
1 56:1 122:1 152:1 287:1 376:1 405:1 1070:1 1938:1 5635:1 6125:1 6705:1 8875:1 8876:1 
1 8:1 29:1 35:1 38:1 227:1 1736:1 3257:1 3508:1 8891:1 8905:1 
1 19:1 29:1 33:1 35:1 42:1 50:1 59:1 76:1 96:1 117:1 121:1 195:1 205:1 312:1 486:1 931:1 976:1 1180:1 2422:1 8908:1 
0.5184914798458743 19:1 78:1 144:1 288:1 542:1 2550:1 2637:1 2927:1 2928:1 4980:1 8936:1 
1 8:1 11:1 19:1 174:1 200:1 359:1 516:1 1460:1 1925:1 2315:1 3010:1 4486:1 4979:1 
1 8:1 10:1 19:1 35:1 121:1 125:1 129:1 393:1 460:1 516:1 681:1 1638:1 2402:1 3854:1 4906:1 5324:1 8939:1 8940:1 8941:1 
0.4565469962564237 24:1 29:1 33:1 52:1 447:1 656:1 991:1 1006:1 1027:1 2226:1 2228:1 8968:1 8969:1 
1 35:1 38:1 152:1 156:1 343:1 660:1 2328:1 4040:1 9017:1 
0.2154883459361878 8:1 29:1 44:1 78:1 101:1 110:1 115:1 120:1 140:1 152:1 156:1 168:1 198:1 220:1 433:1 667:1 857:1 872:1 1126:1 1133:1 1409:1 1451:1 1666:1 1793:1 3808:1 9029:1 9030:1 9031:1 9032:1 9033:1 9034:1 9035:1 9036:1 9037:1 9038:1 9039:1 
0.6151186188586721 1:1 8:1 29:1 30:1 38:1 56:1 72:1 78:1 99:1 148:1 168:1 181:1 184:1 249:1 271:1 350:1 1979:1 4406:1 5798:1 5830:1 6783:1 7804:1 7806:1 7814:1 7844:1 9001:1 
0.6311221093763981 19:1 21:1 78:1 84:1 140:1 152:1 237:1 256:1 1866:1 2153:1 4033:1 7812:1 7838:1 7844:1 9050:1 9051:1 9052:1 
0.4166955022176068 8:1 78:1 124:1 275:1 290:1 516:1 667:1 1070:1 1126:1 1849:1 2313:1 2815:1 2965:1 4708:1 9059:1 9060:1 9061:1 9062:1 9063:1 9064:1 9065:1 
0.1961160672739035 8:1 19:1 29:1 35:1 78:1 121:1 124:1 146:1 2984:1 3226:1 4364:1 4708:1 7319:1 8019:1 9068:1 9069:1 
0.3864241178062572 29:1 42:1 81:1 126:1 146:1 400:1 441:1 1088:1 1090:1 1426:1 1473:1 2391:1 3422:1 3485:1 3921:1 7804:1 7842:1 7844:1 
1 7:1 78:1 140:1 152:1 486:1 654:1 1512:1 2084:1 3495:1 4778:1 4976:1 9073:1 
0.3787827969984048 19:1 33:1 75:1 76:1 84:1 152:1 156:1 259:1 655:1 2007:1 4467:1 9076:1 9077:1 9078:1 9079:1 9080:1 
0.3946216564918849 29:1 44:1 52:1 62:1 67:1 78:1 140:1 239:1 261:1 278:1 1323:1 1640:1 1949:1 4506:1 7346:1 9081:1 9087:1 9093:1 
0.4655716399041755 19:1 29:1 52:1 56:1 278:1 304:1 610:1 1325:1 4352:1 9109:1 9115:1 9116:1 9117:1 9118:1 
1 8:1 19:1 29:1 51:1 152:1 156:1 186:1 239:1 278:1 304:1 588:1 639:1 1266:1 1293:1 1320:1 2288:1 3616:1 4352:1 6040:1 9081:1 9098:1 9103:1 9104:1 9109:1 9117:1 9119:1 
1 29:1 38:1 42:1 78:1 111:1 405:1 486:1 652:1 1053:1 1510:1 3492:1 3750:1 4976:1 9123:1 
1 8:1 29:1 30:1 78:1 93:1 140:1 152:1 204:1 271:1 376:1 1137:1 1353:1 1371:1 1784:1 2245:1 9101:1 9104:1 9132:1 
0.7377135238792474 8:1 19:1 29:1 84:1 129:1 278:1 290:1 343:1 841:1 1510:1 1640:1 3750:1 3819:1 6132:1 8226:1 9081:1 9093:1 9129:1 9130:1 9135:1 9146:1 
1 29:1 78:1 79:1 140:1 151:1 152:1 206:1 271:1 280:1 459:1 636:1 822:1 863:1 1029:1 4571:1 6695:1 9147:1 
1 19:1 29:1 38:1 50:1 78:1 79:1 140:1 151:1 152:1 159:1 174:1 434:1 500:1 516:1 863:1 901:1 938:1 1029:1 2084:1 2586:1 2719:1 2746:1 3050:1 6695:1 9147:1 9148:1 9149:1 9150:1 
0.3566089235614753 19:1 29:1 35:1 38:1 96:1 140:1 152:1 156:1 159:1 256:1 363:1 560:1 661:1 981:1 1260:1 4888:1 6363:1 6912:1 9153:1 9154:1 9155:1 9156:1 
0.7105225904184885 8:1 19:1 23:1 24:1 29:1 56:1 78:1 96:1 117:1 156:1 273:1 381:1 575:1 972:1 1330:1 1371:1 1797:1 2206:1 2307:1 3821:1 6912:1 9157:1 9158:1 9159:1 9160:1 9161:1 
1 29:1 52:1 56:1 58:1 79:1 486:1 1029:1 1330:1 1442:1 1632:1 6695:1 9167:1 9168:1 9169:1 
1 8:1 19:1 29:1 31:1 78:1 79:1 140:1 147:1 148:1 152:1 273:1 281:1 284:1 301:1 560:1 583:1 633:1 798:1 857:1 1006:1 1029:1 1487:1 2207:1 2307:1 6395:1 6695:1 6912:1 9173:1 9187:1 9189:1 9190:1 9191:1 
1 19:1 29:1 34:1 79:1 147:1 151:1 798:1 1006:1 1029:1 1089:1 6695:1 9200:1 9201:1 9202:1 
1 8:1 33:1 44:1 78:1 98:1 117:1 140:1 147:1 193:1 500:1 516:1 799:1 1006:1 1069:1 2307:1 6016:1 9161:1 9168:1 9175:1 9206:1 
0.7214295292820003 23:1 29:1 58:1 117:1 125:1 140:1 147:1 152:1 237:1 290:1 468:1 690:1 798:1 1028:1 1029:1 1069:1 1110:1 2176:1 2307:1 2749:1 6695:1 6912:1 9161:1 9175:1 9200:1 9206:1 9208:1 9209:1 
0.6057118462652719 19:1 29:1 52:1 81:1 84:1 143:1 151:1 359:1 376:1 383:1 459:1 511:1 560:1 1008:1 1659:1 1730:1 3761:1 7218:1 9216:1 9225:1 
1 8:1 29:1 125:1 151:1 389:1 560:1 1089:1 8067:1 9216:1 9226:1 9227:1 
1 10:1 56:1 321:1 544:1 870:1 938:1 1067:1 6787:1 
1 1:1 10:1 11:1 18:1 19:1 35:1 38:1 45:1 71:1 78:1 107:1 140:1 152:1 156:1 238:1 243:1 259:1 399:1 888:1 970:1 986:1 1067:1 1234:1 1760:1 2066:1 2729:1 2733:1 9229:1 
1 8:1 33:1 44:1 45:1 107:1 140:1 152:1 156:1 205:1 223:1 284:1 286:1 321:1 587:1 780:1 817:1 882:1 1464:1 1568:1 1590:1 2160:1 2282:1 9230:1 9233:1 9234:1 
0.2894307081886682 8:1 19:1 33:1 58:1 78:1 107:1 122:1 174:1 206:1 286:1 321:1 381:1 417:1 587:1 882:1 1464:1 1798:1 1802:1 1867:1 2282:1 2620:1 2765:1 4506:1 7110:1 9233:1 9235:1 9236:1 9237:1 9238:1 9239:1 
0.258793357218347 8:1 19:1 35:1 44:1 56:1 107:1 121:1 140:1 152:1 206:1 262:1 280:1 405:1 411:1 460:1 583:1 970:1 1017:1 1206:1 1426:1 1635:1 2431:1 3255:1 6541:1 9243:1 9244:1 
1 29:1 30:1 42:1 44:1 101:1 118:1 129:1 220:1 273:1 286:1 295:1 416:1 1195:1 1768:1 9230:1 9260:1 
1 8:1 33:1 51:1 52:1 117:1 152:1 156:1 212:1 444:1 467:1 564:1 940:1 1089:1 2222:1 3002:1 3492:1 3497:1 3528:1 7042:1 9289:1 9290:1 9291:1 9292:1 9293:1 
1 8:1 11:1 29:1 37:1 78:1 99:1 151:1 206:1 271:1 288:1 444:1 447:1 718:1 1041:1 1646:1 2828:1 5490:1 9253:1 9295:1 
1 8:1 19:1 29:1 78:1 125:1 140:1 146:1 151:1 152:1 271:1 491:1 790:1 987:1 1646:1 2214:1 2915:1 3828:1 5832:1 9311:1 9312:1 9313:1 9314:1 
0.4979969107323303 56:1 78:1 125:1 140:1 152:1 405:1 1759:1 2510:1 6607:1 9352:1 9353:1 9354:1 9355:1 9356:1 
0.6156740519902028 8:1 17:1 42:1 78:1 125:1 149:1 184:1 206:1 362:1 500:1 587:1 1029:1 1095:1 1235:1 1866:1 2243:1 2521:1 3057:1 9363:1 9364:1 9365:1 9366:1 9367:1 9368:1 
0.2911393079807371 8:1 17:1 62:1 69:1 78:1 125:1 158:1 161:1 272:1 331:1 405:1 500:1 538:1 588:1 1095:1 1140:1 1313:1 2315:1 2426:1 2784:1 4600:1 9369:1 9370:1 9371:1 9372:1 
1 8:1 11:1 12:1 33:1 36:1 78:1 101:1 122:1 124:1 173:1 206:1 405:1 822:1 1171:1 1736:1 2116:1 9298:1 9302:1 
0.7354589677086016 8:1 127:1 206:1 1441:1 2222:1 9381:1 9382:1 
0.5996463401441141 8:1 19:1 29:1 146:1 239:1 1421:1 1678:1 1837:1 3846:1 4123:1 9278:1 9380:1 9383:1 9384:1 9385:1 9386:1 
0.6160087042546746 8:1 56:1 81:1 138:1 172:1 281:1 359:1 3848:1 9278:1 9287:1 9390:1 9391:1 
1 8:1 29:1 50:1 159:1 538:1 560:1 1041:1 1206:1 9392:1 9393:1 9399:1 
1 58:1 121:1 125:1 172:1 560:1 784:1 9399:1 
1 8:1 29:1 42:1 50:1 55:1 272:1 359:1 376:1 460:1 1166:1 1742:1 2481:1 2827:1 9393:1 9403:1 9404:1 9405:1 9406:1 9407:1 9408:1 
1 8:1 126:1 683:1 5110:1 5492:1 5700:1 
1 19:1 56:1 78:1 84:1 129:1 147:1 150:1 583:1 841:1 854:1 948:1 1054:1 4350:1 6452:1 9418:1 9428:1 
0.6137956545587994 19:1 29:1 30:1 78:1 112:1 120:1 129:1 218:1 233:1 239:1 332:1 352:1 405:1 486:1 854:1 1008:1 1027:1 2053:1 2766:1 5391:1 8839:1 9422:1 9425:1 9436:1 9437:1 9438:1 9439:1 9440:1 9441:1 9442:1 9443:1 
0.1444788980912334 12:1 19:1 51:1 147:1 151:1 181:1 264:1 287:1 560:1 2053:1 2261:1 2285:1 4257:1 8993:1 9444:1 9451:1 
1 29:1 42:1 52:1 54:1 148:1 151:1 198:1 261:1 271:1 444:1 486:1 718:1 1009:1 1312:1 9253:1 9464:1 9470:1 
0.4311194841141163 19:1 35:1 51:1 78:1 148:1 1152:1 1265:1 1451:1 2030:1 3176:1 4837:1 9488:1 
1 8:1 19:1 29:1 45:1 51:1 117:1 464:1 718:1 8967:1 
1 8:1 78:1 117:1 137:1 140:1 152:1 199:1 560:1 564:1 718:1 831:1 1265:1 1266:1 9253:1 9470:1 9498:1 
0.7386903884158975 18:1 52:1 76:1 272:1 637:1 882:1 1270:1 3821:1 9530:1 9531:1 
1 8:1 29:1 58:1 125:1 140:1 150:1 151:1 152:1 231:1 344:1 1002:1 1006:1 1041:1 1311:1 2720:1 6158:1 9548:1 
0.2960722897317617 8:1 19:1 23:1 29:1 33:1 52:1 143:1 144:1 201:1 209:1 227:1 399:1 418:1 444:1 452:1 486:1 831:1 1183:1 1229:1 1378:1 1600:1 1608:1 5013:1 9555:1 9559:1 
0.4480726803386825 8:1 11:1 33:1 78:1 93:1 100:1 125:1 140:1 148:1 151:1 152:1 264:1 271:1 444:1 467:1 542:1 1689:1 3598:1 9563:1 9564:1 9565:1 9566:1 9567:1 
0.5779156443043665 7:1 8:1 78:1 147:1 2261:1 5866:1 7042:1 9583:1 9584:1 
0.6495963369185727 7:1 15:1 29:1 67:1 78:1 140:1 152:1 195:1 405:1 444:1 5945:1 7207:1 9455:1 9635:1 9636:1 
0.2990306531784182 12:1 29:1 79:1 121:1 138:1 140:1 152:1 206:1 227:1 231:1 271:1 355:1 583:1 672:1 788:1 1027:1 1159:1 2235:1 2431:1 5866:1 5900:1 5945:1 6048:1 6368:1 9647:1 9655:1 9667:1 9668:1 
1 8:1 19:1 84:1 126:1 290:1 343:1 538:1 1030:1 2486:1 9145:1 9645:1 
1 7:1 33:1 142:1 150:1 152:1 156:1 542:1 7519:1 8332:1 9677:1 
1 8:1 78:1 122:1 464:1 1011:1 1736:1 3974:1 9698:1 9699:1 9700:1 
1 8:1 10:1 29:1 79:1 111:1 122:1 124:1 138:1 269:1 399:1 560:1 1089:1 1341:1 1704:1 1768:1 4166:1 9702:1 9709:1 
1 8:1 29:1 30:1 122:1 143:1 156:1 562:1 583:1 1100:1 1742:1 4166:1 4305:1 4827:1 9710:1 9711:1 9712:1 9713:1 
1 12:1 78:1 140:1 152:1 271:1 1727:1 1742:1 1760:1 2206:1 4571:1 9721:1 
0.7894143014272412 8:1 29:1 39:1 122:1 143:1 308:1 405:1 562:1 971:1 1326:1 1768:1 4369:1 5449:1 8895:1 9722:1 9723:1 
1 12:1 19:1 84:1 126:1 150:1 854:1 8895:1 9714:1 
1 8:1 29:1 30:1 51:1 78:1 140:1 152:1 195:1 213:1 271:1 405:1 560:1 851:1 1162:1 1554:1 2084:1 2241:1 3865:1 4443:1 6968:1 7686:1 9726:1 
1 8:1 29:1 30:1 42:1 121:1 125:1 140:1 152:1 227:1 256:1 433:1 444:1 491:1 538:1 966:1 987:1 1647:1 2811:1 9729:1 9732:1 
0.6863772597600982 33:1 85:1 100:1 121:1 151:1 170:1 302:1 2251:1 5907:1 5994:1 7109:1 9750:1 
1 8:1 29:1 125:1 147:1 174:1 271:1 405:1 560:1 661:1 5921:1 6023:1 6094:1 9517:1 9749:1 9751:1 9753:1 
1 1:1 7:1 81:1 140:1 152:1 220:1 560:1 564:1 587:1 4116:1 9760:1 9761:1 9762:1 
1 29:1 148:1 271:1 389:1 1086:1 1436:1 9468:1 9774:1 
0.5063988142216049 8:1 24:1 78:1 140:1 152:1 167:1 452:1 3071:1 3283:1 5855:1 5859:1 5898:1 5950:1 6185:1 9786:1 9787:1 9788:1 
0.1163924090574253 29:1 140:1 152:1 154:1 538:1 572:1 575:1 2817:1 5877:1 5883:1 5887:1 5889:1 6968:1 9797:1 9801:1 9802:1 9803:1 9804:1 9805:1 9806:1 
0.1895714724640993 8:1 29:1 78:1 206:1 286:1 400:1 405:1 435:1 484:1 562:1 636:1 669:1 822:1 1425:1 4893:1 5893:1 5938:1 5939:1 5942:1 5944:1 6471:1 9808:1 9809:1 9810:1 9811:1 9812:1 
0.4152470406502168 19:1 29:1 33:1 56:1 84:1 444:1 484:1 1971:1 2359:1 2535:1 4563:1 4893:1 6471:1 9808:1 9810:1 9811:1 9817:1 
0.5966012395875646 19:1 28:1 29:1 35:1 51:1 65:1 84:1 121:1 174:1 256:1 357:1 1049:1 1265:1 1313:1 1567:1 2067:1 2207:1 2304:1 9828:1 9832:1 
0.6727015693588528 8:1 29:1 79:1 117:1 120:1 144:1 504:1 1006:1 2207:1 2682:1 2909:1 9852:1 9853:1 9854:1 9855:1 
1 21:1 33:1 78:1 140:1 152:1 265:1 459:1 6421:1 9850:1 9856:1 
0.3459037935529986 19:1 29:1 138:1 264:1 332:1 1062:1 1187:1 1371:1 1837:1 2359:1 6775:1 9872:1 9873:1 9874:1 9875:1 
0.4594551752502646 19:1 29:1 78:1 84:1 205:1 332:1 979:1 1876:1 8780:1 8995:1 9887:1 9888:1 
1 11:1 19:1 29:1 44:1 84:1 359:1 509:1 979:1 1635:1 2810:1 4162:1 8148:1 8386:1 9889:1 9890:1 
0.2276616332832432 11:1 12:1 21:1 29:1 33:1 78:1 85:1 121:1 221:1 286:1 355:1 854:1 2923:1 5537:1 7084:1 9896:1 
0.6135758821937428 8:1 19:1 24:1 29:1 30:1 67:1 76:1 96:1 227:1 721:1 799:1 1031:1 1131:1 1159:1 1679:1 1691:1 1736:1 2376:1 3331:1 4813:1 9911:1 9932:1 9933:1 9941:1 9942:1 9943:1 
0.4892078581595921 8:1 23:1 29:1 76:1 126:1 216:1 227:1 239:1 1041:1 2619:1 4390:1 4844:1 8259:1 9914:1 9952:1 
0.6053783435081151 29:1 33:1 44:1 47:1 56:1 67:1 79:1 187:1 207:1 302:1 928:1 1601:1 1949:1 2765:1 3508:1 5655:1 9970:1 9989:1 9990:1 9991:1 9992:1 
1 19:1 29:1 42:1 45:1 122:1 172:1 181:1 206:1 209:1 304:1 1016:1 1162:1 5635:1 10009:1 
0.475689093221964 33:1 56:1 322:1 364:1 641:1 883:1 1282:1 7498:1 10026:1 10029:1 10031:1 
0.8104285275359007 29:1 56:1 286:1 405:1 516:1 883:1 2939:1 10026:1 10029:1 10032:1 10033:1 
1 8:1 12:1 30:1 148:1 406:1 683:1 883:1 2686:1 2707:1 3339:1 10026:1 10032:1 
0.7987908760860573 29:1 81:1 205:1 276:1 400:1 857:1 1086:1 1088:1 1089:1 4792:1 6158:1 6171:1 10026:1 10047:1 10048:1 10049:1 
0.4237293267709582 7:1 8:1 78:1 140:1 147:1 150:1 152:1 234:1 863:1 1618:1 1654:1 2285:1 4010:1 10062:1 10066:1 10067:1 10068:1 10069:1 
0.5263822847552556 8:1 38:1 78:1 125:1 272:1 641:1 1069:1 10130:1 10132:1 10133:1 10134:1 10135:1 10136:1 10137:1 
1 29:1 85:1 205:1 271:1 272:1 405:1 1011:1 2385:1 3821:1 6910:1 6912:1 10100:1 10138:1 
0.6794628243668531 29:1 78:1 205:1 355:1 460:1 560:1 1011:1 2385:1 2835:1 6787:1 
0.6239939013169324 8:1 19:1 29:1 33:1 45:1 84:1 198:1 493:1 538:1 1041:1 1056:1 2385:1 2743:1 3106:1 6910:1 10100:1 10139:1 10140:1 
0.2896776367941319 8:1 29:1 140:1 174:1 239:1 271:1 284:1 343:1 351:1 790:1 930:1 1206:1 1426:1 2385:1 2839:1 6883:1 8297:1 9199:1 9808:1 10117:1 10118:1 10130:1 10141:1 10142:1 
1 29:1 30:1 64:1 120:1 152:1 156:1 271:1 290:1 500:1 560:1 858:1 1338:1 1597:1 3597:1 10179:1 10203:1 10204:1 
0.5596258238156187 8:1 107:1 125:1 389:1 538:1 1010:1 1092:1 5108:1 10188:1 10205:1 10206:1 10207:1 10208:1 10209:1 
1 56:1 691:1 4721:1 10187:1 10210:1 
1 29:1 107:1 263:1 560:1 650:1 799:1 3589:1 
1 8:1 152:1 156:1 223:1 587:1 3413:1 4343:1 8688:1 10237:1 10238:1 10239:1 
1 121:1 128:1 302:1 355:1 516:1 
1 8:1 10:1 78:1 107:1 172:1 275:1 516:1 1723:1 3597:1 5378:1 10176:1 
1 29:1 32:1 42:1 52:1 76:1 110:1 198:1 227:1 261:1 399:1 564:1 668:1 675:1 983:1 2222:1 3307:1 8324:1 10247:1 
0.2581217386123738 29:1 152:1 156:1 239:1 287:1 295:1 429:1 505:1 854:1 1071:1 1646:1 2542:1 3057:1 3307:1 9001:1 10247:1 10249:1 10250:1 10251:1 
1 19:1 29:1 126:1 127:1 129:1 486:1 583:1 854:1 1010:1 1063:1 3885:1 3944:1 10249:1 10278:1 10280:1 
0.4698588607109093 43:1 84:1 209:1 1280:1 1376:1 3362:1 3795:1 3811:1 5634:1 10284:1 
1 33:1 205:1 405:1 429:1 3362:1 4761:1 5802:1 8480:1 
1 205:1 4524:1 8480:1 8687:1 10290:1 
1 8:1 19:1 21:1 29:1 33:1 42:1 107:1 121:1 125:1 133:1 205:1 417:1 667:1 700:1 904:1 970:1 1083:1 1398:1 3362:1 6568:1 7720:1 10297:1 10300:1 10301:1 10302:1 10303:1 
1 8:1 19:1 29:1 148:1 239:1 271:1 308:1 363:1 460:1 511:1 858:1 942:1 1426:1 1442:1 1702:1 2255:1 2261:1 3362:1 4761:1 9399:1 10292:1 10305:1 10306:1 10307:1 
1 8:1 29:1 35:1 38:1 148:1 220:1 239:1 271:1 290:1 359:1 942:1 1083:1 1131:1 1260:1 2376:1 2852:1 3362:1 4166:1 4606:1 4761:1 7519:1 9399:1 10306:1 10308:1 10309:1 
0.5507289464946449 19:1 20:1 29:1 51:1 56:1 74:1 79:1 84:1 156:1 237:1 259:1 444:1 484:1 1097:1 1255:1 1325:1 1425:1 1460:1 1510:1 1645:1 2640:1 3307:1 8288:1 10315:1 
1 8:1 11:1 29:1 39:1 127:1 128:1 140:1 152:1 249:1 464:1 498:1 560:1 1770:1 2402:1 3966:1 6036:1 6048:1 6105:1 7642:1 10164:1 
0.3142254622633968 12:1 15:1 78:1 79:1 140:1 152:1 227:1 237:1 312:1 976:1 1512:1 1518:1 1849:1 2510:1 2789:1 4033:1 4108:1 8026:1 10338:1 10339:1 10340:1 10341:1 
0.653974443475025 8:1 66:1 111:1 138:1 639:1 970:1 976:1 1483:1 2826:1 4792:1 4809:1 7198:1 8439:1 10355:1 10356:1 
0.02652232186722758 389:1 1260:1 10380:1 10381:1 10382:1 
1 8:1 19:1 29:1 35:1 44:1 56:1 121:1 125:1 198:1 363:1 447:1 579:1 863:1 954:1 1210:1 1753:1 4159:1 10342:1 10343:1 
1 288:1 364:1 870:1 1088:1 10429:1 
0.3127321764061871 29:1 172:1 364:1 1988:1 9392:1 10431:1 
1 18:1 156:1 564:1 790:1 981:1 3263:1 6795:1 8317:1 10459:1 10469:1 10470:1 
0.3009638458003902 8:1 19:1 29:1 58:1 140:1 152:1 184:1 405:1 966:1 1442:1 2064:1 2640:1 2768:1 6828:1 7042:1 10446:1 10453:1 10459:1 10474:1 10479:1 10480:1 10481:1 
0.4440316924095153 4:1 8:1 78:1 84:1 99:1 125:1 150:1 167:1 231:1 500:1 798:1 1593:1 2304:1 3260:1 4524:1 6690:1 6901:1 7622:1 8131:1 10483:1 10486:1 10487:1 10488:1 
0.7050073346442822 14:1 29:1 33:1 35:1 51:1 121:1 148:1 460:1 1054:1 3811:1 10443:1 10448:1 10503:1 10511:1 10512:1 
1 29:1 51:1 56:1 76:1 78:1 273:1 355:1 560:1 581:1 1770:1 2241:1 3811:1 4791:1 6741:1 
0.3308810681204461 1:1 19:1 29:1 33:1 42:1 52:1 56:1 78:1 129:1 288:1 355:1 364:1 564:1 578:1 581:1 871:1 1770:1 2228:1 3598:1 3811:1 7198:1 9760:1 10448:1 10514:1 
1 8:1 29:1 117:1 148:1 343:1 502:1 683:1 863:1 1010:1 3811:1 6690:1 10448:1 
1 8:1 29:1 42:1 76:1 172:1 205:1 404:1 560:1 581:1 683:1 1770:1 3811:1 10448:1 10493:1 10532:1 10533:1 
1 78:1 140:1 143:1 152:1 213:1 229:1 784:1 1011:1 1744:1 1971:1 2342:1 2926:1 4445:1 8505:1 10538:1 
0.4369752571220817 19:1 84:1 126:1 140:1 152:1 239:1 363:1 404:1 645:1 852:1 1104:1 1678:1 2342:1 2352:1 6386:1 10545:1 10546:1 10547:1 10548:1 10549:1 10550:1 
0.131162300457594 8:1 78:1 159:1 271:1 286:1 405:1 786:1 1265:1 1283:1 2108:1 6986:1 8522:1 10566:1 10567:1 10568:1 10569:1 10570:1 
1 7:1 8:1 19:1 29:1 60:1 143:1 150:1 151:1 165:1 206:1 261:1 271:1 500:1 562:1 583:1 841:1 1041:1 1246:1 2206:1 4839:1 10571:1 10573:1 10574:1 10575:1 
1 23:1 29:1 42:1 45:1 85:1 110:1 151:1 159:1 205:1 467:1 560:1 999:1 2352:1 10577:1 
0.6509724268698792 7:1 19:1 29:1 33:1 151:1 206:1 273:1 286:1 405:1 480:1 516:1 560:1 583:1 652:1 784:1 786:1 1170:1 1330:1 1417:1 1460:1 1475:1 2352:1 2581:1 6741:1 6990:1 10564:1 10578:1 10579:1 10580:1 
0.6379541271010573 29:1 122:1 138:1 200:1 1426:1 9990:1 10588:1 10589:1 
1 8:1 19:1 29:1 96:1 244:1 1101:1 4162:1 10636:1 10637:1 10638:1 
1 8:1 29:1 126:1 213:1 255:1 948:1 1029:1 3748:1 10655:1 10656:1 
1 18:1 81:1 211:1 239:1 288:1 500:1 1403:1 3337:1 10676:1 10677:1 
0.4956186697485441 19:1 51:1 144:1 239:1 288:1 410:1 500:1 542:1 1436:1 1753:1 2427:1 2807:1 3596:1 10682:1 10683:1 
0.3696514750642571 8:1 29:1 42:1 81:1 165:1 406:1 410:1 441:1 486:1 500:1 545:1 1403:1 2841:1 4477:1 10687:1 10688:1 
0.3881932496423683 29:1 78:1 81:1 143:1 172:1 954:1 1088:1 2553:1 3403:1 5891:1 10214:1 10693:1 10694:1 
0.3198351113636685 1:1 19:1 29:1 52:1 55:1 100:1 140:1 152:1 405:1 547:1 987:1 1053:1 1054:1 1327:1 1567:1 1646:1 2033:1 2532:1 3283:1 5568:1 10704:1 10705:1 10706:1 10707:1 10708:1 10709:1 
1 8:1 29:1 30:1 78:1 122:1 140:1 152:1 195:1 220:1 223:1 244:1 271:1 273:1 464:1 4412:1 10714:1 10717:1 10718:1 
0.3973706877147475 19:1 78:1 140:1 152:1 156:1 198:1 220:1 223:1 432:1 504:1 641:1 1678:1 3448:1 4412:1 7598:1 9736:1 10713:1 10714:1 
1 19:1 30:1 38:1 78:1 140:1 144:1 152:1 275:1 434:1 507:1 511:1 800:1 1586:1 3090:1 3944:1 10719:1 10731:1 10732:1 
1 19:1 28:1 29:1 39:1 264:1 948:1 1101:1 1567:1 1741:1 7598:1 
0.6691189318795538 1:1 8:1 29:1 140:1 152:1 156:1 198:1 220:1 223:1 259:1 276:1 538:1 1101:1 1136:1 1640:1 1646:1 4369:1 4412:1 10714:1 10746:1 10750:1 10751:1 10752:1 10753:1 
0.44147822056539 50:1 78:1 140:1 152:1 544:1 928:1 8131:1 10763:1 10764:1 
0.4711088369175139 29:1 42:1 148:1 288:1 546:1 8154:1 10785:1 
1 29:1 208:1 265:1 546:1 10773:1 10788:1 10789:1 10790:1 10791:1 
0.4746663579969752 8:1 100:1 140:1 152:1 220:1 286:1 1010:1 10792:1 10793:1 10794:1 10795:1 
0.02249941596747085 295:1 389:1 3140:1 10819:1 
0.5171252611707222 8:1 29:1 220:1 286:1 1640:1 10805:1 10820:1 10821:1 10822:1 10823:1 
1 125:1 389:1 1027:1 3140:1 10815:1 10840:1 
0.6545909304549832 29:1 38:1 79:1 167:1 181:1 206:1 220:1 256:1 273:1 287:1 568:1 1278:1 1476:1 2789:1 8434:1 9277:1 
1 7:1 8:1 42:1 140:1 152:1 227:1 231:1 271:1 1054:1 4609:1 6759:1 10867:1 10868:1 
0.6859745653293853 8:1 29:1 146:1 151:1 290:1 505:1 897:1 979:1 1736:1 2313:1 4848:1 9231:1 10532:1 10858:1 10878:1 
0.3154934040072264 22:1 29:1 61:1 159:1 205:1 220:1 355:1 503:1 583:1 2241:1 2816:1 3456:1 4778:1 6570:1 10888:1 10889:1 10890:1 10891:1 10892:1 10893:1 
1 12:1 1666:1 3411:1 
0.3546313326852929 8:1 28:1 33:1 140:1 152:1 156:1 363:1 605:1 1027:1 1184:1 1187:1 1653:1 2277:1 4203:1 5020:1 6981:1 10261:1 10922:1 10923:1 10929:1 
1 152:1 156:1 272:1 1987:1 2376:1 4752:1 10932:1 
0.3730223511301169 404:1 465:1 2376:1 2488:1 3096:1 8200:1 10935:1 10936:1 
1 76:1 1062:1 2376:1 3757:1 10930:1 
0.4932540178490601 19:1 29:1 48:1 84:1 107:1 150:1 399:1 1320:1 4499:1 4874:1 8200:1 9513:1 10936:1 10939:1 10940:1 10941:1 10942:1 10943:1 
0.3967098671495081 8:1 84:1 134:1 140:1 150:1 151:1 152:1 200:1 237:1 1208:1 1274:1 1330:1 3290:1 4747:1 8200:1 9857:1 10915:1 10928:1 
1 78:1 355:1 542:1 1476:1 3290:1 10816:1 10913:1 10950:1 10960:1 
1 125:1 140:1 152:1 199:1 288:1 538:1 1010:1 10792:1 10793:1 10856:1 10967:1 
1 28:1 125:1 140:1 151:1 152:1 1030:1 5631:1 10923:1 10945:1 10974:1 
0.4265434782576006 19:1 45:1 125:1 151:1 2855:1 4258:1 10923:1 10945:1 10978:1 10979:1 
1 29:1 56:1 78:1 140:1 152:1 589:1 1397:1 1405:1 2153:1 2376:1 10956:1 10962:1 10990:1 
0.3898139461840228 23:1 29:1 30:1 42:1 165:1 189:1 239:1 1158:1 1760:1 1971:1 4245:1 4609:1 6906:1 10973:1 
1 78:1 84:1 125:1 150:1 205:1 841:1 1061:1 1180:1 1853:1 3607:1 10992:1 10996:1 10997:1 10999:1 
1 29:1 150:1 1725:1 3607:1 
1 15:1 78:1 140:1 152:1 195:1 220:1 938:1 1611:1 3787:1 7866:1 
1 24:1 50:1 84:1 220:1 293:1 395:1 399:1 460:1 491:1 505:1 1234:1 3624:1 11008:1 
0.3594629184930577 29:1 42:1 120:1 234:1 583:1 682:1 712:1 7042:1 7209:1 9225:1 11011:1 
0.5447005397912521 29:1 220:1 227:1 641:1 798:1 1097:1 5710:1 11014:1 11020:1 11021:1 
1 28:1 29:1 50:1 127:1 152:1 156:1 237:1 382:1 486:1 799:1 1137:1 6906:1 11031:1 
0.2852429435061961 8:1 12:1 21:1 151:1 355:1 799:1 1126:1 1600:1 4574:1 6677:1 10441:1 11032:1 11033:1 
1 29:1 125:1 271:1 1413:1 1521:1 3489:1 11059:1 11067:1 
1 8:1 29:1 159:1 343:1 683:1 1011:1 1041:1 3485:1 11073:1 
0.4776547494220724 8:1 355:1 359:1 840:1 1329:1 1442:1 2252:1 11074:1 11075:1 11076:1 
1 4:1 78:1 121:1 140:1 312:1 355:1 970:1 1266:1 2127:1 11080:1 11081:1 11082:1 11083:1 
0.374095762140684 52:1 130:1 156:1 181:1 228:1 355:1 486:1 840:1 901:1 1056:1 1389:1 1694:1 2228:1 2411:1 2581:1 5500:1 11076:1 11087:1 11088:1 
1 1027:1 3283:1 11089:1 11097:1 
0.2524318910701775 4:1 78:1 140:1 152:1 6554:1 11104:1 11105:1 
1 8:1 56:1 81:1 167:1 281:1 286:1 605:1 721:1 1600:1 1683:1 3323:1 3332:1 11109:1 11110:1 11111:1 11112:1 
0.6537275452656012 8:1 43:1 120:1 140:1 152:1 192:1 281:1 282:1 364:1 416:1 581:1 661:1 1142:1 1158:1 2192:1 3323:1 9281:1 11102:1 11113:1 11114:1 11115:1 11116:1 
0.1153243582167895 29:1 42:1 78:1 128:1 148:1 151:1 211:1 287:1 343:1 545:1 636:1 1428:1 1808:1 5895:1 11117:1 11118:1 
1 19:1 58:1 121:1 125:1 152:1 156:1 227:1 229:1 7218:1 9212:1 
1 78:1 140:1 152:1 265:1 459:1 9217:1 11139:1 
1 78:1 312:1 400:1 516:1 4792:1 11146:1 11159:1 11160:1 11161:1 11162:1 
1 125:1 173:1 636:1 641:1 1739:1 3611:1 11165:1 
1 8:1 19:1 21:1 29:1 43:1 44:1 56:1 78:1 140:1 143:1 198:1 229:1 286:1 304:1 332:1 349:1 375:1 381:1 564:1 1062:1 1266:1 1891:1 4258:1 5265:1 5807:1 8699:1 11184:1 11185:1 
0.6810924648855832 12:1 20:1 29:1 42:1 56:1 100:1 152:1 332:1 2166:1 3885:1 3930:1 11184:1 11185:1 11187:1 11188:1 11189:1 11190:1 11191:1 
1 8:1 29:1 33:1 127:1 271:1 538:1 854:1 1210:1 1742:1 3122:1 3846:1 11188:1 11192:1 
0.2105856985727588 19:1 29:1 151:1 227:1 486:1 1612:1 8096:1 11203:1 11209:1 11210:1 11211:1 11212:1 
0.2744124479122201 62:1 78:1 140:1 142:1 152:1 271:1 374:1 465:1 686:1 937:1 1422:1 1847:1 3343:1 4639:1 8096:1 11225:1 11228:1 11229:1 
1 29:1 152:1 374:1 641:1 2825:1 3930:1 11217:1 11222:1 
1 29:1 76:1 101:1 653:1 987:1 1567:1 1691:1 2288:1 3169:1 4639:1 11230:1 
1 29:1 683:1 858:1 11249:1 
0.08390081137138838 8:1 23:1 29:1 42:1 159:1 343:1 400:1 863:1 937:1 2837:1 3485:1 11265:1 11266:1 11267:1 
0.2894774095815115 7:1 8:1 33:1 51:1 78:1 237:1 542:1 1142:1 1229:1 2272:1 2532:1 2719:1 3645:1 5950:1 7506:1 7982:1 11269:1 11270:1 11271:1 11272:1 11273:1 11274:1 
0.4029246248324589 8:1 21:1 35:1 78:1 121:1 124:1 147:1 205:1 273:1 496:1 1512:1 3257:1 4231:1 5830:1 8947:1 11275:1 11276:1 11277:1 11278:1 11279:1 11280:1 11281:1 
1 19:1 29:1 44:1 84:1 205:1 3307:1 3903:1 5830:1 6497:1 8133:1 8347:1 11282:1 11283:1 11284:1 11285:1 11286:1 
0.3061026477291735 8:1 19:1 29:1 52:1 76:1 165:1 234:1 290:1 300:1 677:1 1542:1 2876:1 2911:1 3085:1 3497:1 3931:1 4412:1 5221:1 5783:1 8441:1 8675:1 11290:1 11291:1 
1 28:1 42:1 125:1 405:1 439:1 822:1 2586:1 4228:1 5018:1 11390:1 11391:1 11392:1 11393:1 
1 8:1 19:1 29:1 42:1 117:1 272:1 486:1 785:1 849:1 854:1 1041:1 1148:1 1283:1 3884:1 5798:1 6158:1 11400:1 11401:1 
0.6939583951665114 8:1 23:1 29:1 33:1 42:1 45:1 52:1 56:1 159:1 167:1 198:1 211:1 312:1 332:1 343:1 416:1 417:1 444:1 641:1 858:1 866:1 976:1 1282:1 1788:1 2923:1 5921:1 11409:1 11410:1 
1 7:1 8:1 19:1 33:1 78:1 125:1 126:1 148:1 174:1 206:1 312:1 343:1 417:1 441:1 447:1 877:1 976:1 1788:1 2207:1 2749:1 2923:1 7642:1 11411:1 11412:1 
1 11:1 29:1 42:1 52:1 56:1 126:1 189:1 467:1 498:1 560:1 2207:1 11416:1 
0.2890321527932962 19:1 24:1 26:1 29:1 52:1 56:1 162:1 190:1 261:1 637:1 840:1 1220:1 2521:1 3492:1 3685:1 3808:1 9101:1 9787:1 11424:1 11425:1 11426:1 11427:1 
1 8:1 12:1 206:1 583:1 680:1 3492:1 9342:1 11437:1 11438:1 11439:1 
1 8:1 19:1 29:1 42:1 125:1 399:1 506:1 685:1 706:1 828:1 860:1 1027:1 1413:1 1730:1 2171:1 2400:1 3492:1 3808:1 4079:1 9101:1 9342:1 9437:1 11438:1 11439:1 11443:1 11444:1 11445:1 11446:1 
0.5489150498793192 19:1 52:1 56:1 239:1 269:1 399:1 506:1 661:1 1195:1 1413:1 2277:1 3492:1 3808:1 3985:1 9101:1 11447:1 11448:1 11449:1 
0.8554832590915901 45:1 496:1 538:1 584:1 627:1 1768:1 3492:1 3590:1 
1 29:1 33:1 125:1 273:1 276:1 2277:1 3492:1 11447:1 11449:1 11459:1 11462:1 
1 8:1 148:1 284:1 389:1 452:1 1027:1 7319:1 7647:1 10451:1 11438:1 11439:1 11463:1 11464:1 11465:1 
0.5434530037435763 29:1 42:1 52:1 56:1 234:1 399:1 467:1 2311:1 2950:1 6254:1 7728:1 9764:1 11408:1 11471:1 11472:1 11473:1 
0.2890145279325476 23:1 29:1 33:1 52:1 55:1 78:1 96:1 120:1 122:1 209:1 213:1 227:1 234:1 441:1 444:1 462:1 561:1 1253:1 1971:1 3588:1 7505:1 10957:1 11476:1 11477:1 
1 29:1 293:1 1692:1 5664:1 6787:1 11481:1 
1 8:1 29:1 33:1 42:1 52:1 56:1 84:1 111:1 198:1 239:1 293:1 295:1 578:1 852:1 931:1 1029:1 1107:1 1422:1 2978:1 4224:1 11332:1 11333:1 11334:1 
0.3734968536685139 205:1 1635:1 6585:1 11506:1 11514:1 11520:1 
0.5275641913164536 8:1 29:1 78:1 122:1 140:1 152:1 181:1 193:1 231:1 322:1 852:1 902:1 1826:1 2007:1 2289:1 2911:1 3590:1 3757:1 3931:1 11362:1 11529:1 11530:1 11531:1 11532:1 11533:1 11534:1 11535:1 11536:1 
1 8:1 19:1 76:1 147:1 355:1 683:1 996:1 1371:1 1742:1 5375:1 11538:1 11545:1 
1 8:1 29:1 450:1 546:1 1011:1 2503:1 11539:1 11545:1 
1 56:1 140:1 152:1 206:1 405:1 1170:1 2840:1 9021:1 9432:1 
1 122:1 355:1 1382:1 7845:1 11553:1 
1 78:1 11558:1 
1 29:1 162:1 271:1 560:1 854:1 1742:1 6449:1 11552:1 
1 19:1 29:1 278:1 635:1 636:1 854:1 1010:1 1742:1 8309:1 
1 35:1 125:1 144:1 149:1 376:1 1486:1 1678:1 2122:1 2315:1 2981:1 3280:1 3885:1 11577:1 11578:1 
1 749:1 3481:1 
1 8:1 19:1 29:1 81:1 159:1 286:1 509:1 983:1 1730:1 11608:1 11615:1 11616:1 11617:1 
0.7088606920192629 8:1 33:1 44:1 56:1 295:1 359:1 734:1 1678:1 1733:1 1988:1 3808:1 3812:1 9101:1 11611:1 11618:1 
0.590909342629243 29:1 33:1 44:1 56:1 152:1 156:1 857:1 3808:1 3812:1 9101:1 11619:1 11620:1 11621:1 11622:1 11623:1 
0.6717244051884201 19:1 29:1 83:1 174:1 1313:1 2376:1 11626:1 11628:1 11629:1 11630:1 
1 8:1 29:1 33:1 417:1 560:1 882:1 1313:1 3762:1 9101:1 11624:1 11632:1 11633:1 11634:1 
1 29:1 51:1 58:1 67:1 98:1 195:1 234:1 290:1 1220:1 3492:1 11654:1 11660:1 
0.2928472388500681 18:1 76:1 78:1 140:1 144:1 152:1 184:1 243:1 489:1 948:1 1698:1 1853:1 2206:1 2840:1 3057:1 5798:1 8831:1 11646:1 11654:1 11662:1 11663:1 
1 8:1 29:1 58:1 76:1 144:1 150:1 239:1 318:1 363:1 505:1 1027:1 1220:1 3492:1 3573:1 
1 67:1 785:1 11664:1 11665:1 
1 23:1 88:1 121:1 302:1 5235:1 11670:1 11672:1 
0.566691403566325 8:1 19:1 20:1 28:1 29:1 78:1 84:1 127:1 140:1 290:1 1255:1 2816:1 4609:1 9850:1 11681:1 
1 8:1 29:1 42:1 122:1 140:1 174:1 234:1 1171:1 1698:1 2207:1 3057:1 3340:1 3482:1 4222:1 9850:1 11683:1 11684:1 
0.6952557674796724 29:1 30:1 125:1 271:1 496:1 996:1 1009:1 8795:1 11691:1 11717:1 
1 29:1 30:1 78:1 140:1 152:1 271:1 327:1 4159:1 10214:1 
0.3460255565249751 8:1 29:1 78:1 151:1 264:1 271:1 332:1 970:1 1009:1 3485:1 4303:1 11690:1 11691:1 11698:1 11728:1 11729:1 11730:1 
0.6666492435799544 8:1 19:1 29:1 51:1 78:1 84:1 115:1 231:1 970:1 3107:1 3485:1 3991:1 4303:1 11689:1 11691:1 11698:1 11700:1 11728:1 11734:1 
0.5541353417360745 38:1 78:1 98:1 142:1 198:1 1562:1 2127:1 2925:1 3297:1 11740:1 
1 121:1 400:1 922:1 1011:1 1742:1 11261:1 11747:1 
0.6238658267196473 29:1 152:1 156:1 209:1 1460:1 1742:1 3018:1 3221:1 5234:1 5261:1 10556:1 11749:1 
1 43:1 140:1 152:1 475:1 478:1 1011:1 1426:1 2071:1 2772:1 3057:1 3266:1 
0.4589214155570711 29:1 33:1 52:1 56:1 288:1 332:1 690:1 1183:1 1646:1 6787:1 11804:1 
1 19:1 140:1 152:1 229:1 359:1 785:1 1853:1 2112:1 3828:1 11804:1 
0.6965901450164637 8:1 52:1 56:1 78:1 84:1 140:1 150:1 152:1 231:1 560:1 1388:1 1646:1 1853:1 1976:1 2227:1 3497:1 6758:1 8683:1 8856:1 9001:1 11804:1 11816:1 11821:1 
0.5734565217423995 19:1 81:1 161:1 300:1 312:1 417:1 636:1 641:1 976:1 990:1 1142:1 1422:1 11864:1 11865:1 11866:1 
0.6032901328504918 86:1 126:1 133:1 172:1 312:1 644:1 1418:1 2734:1 3795:1 4064:1 11871:1 
1 11:1 19:1 29:1 51:1 150:1 156:1 205:1 332:1 463:1 489:1 516:1 641:1 948:1 1009:1 1184:1 1187:1 1641:1 3885:1 4170:1 4290:1 4393:1 5135:1 10960:1 11898:1 11899:1 
1 29:1 140:1 148:1 152:1 256:1 275:1 375:1 447:1 948:1 981:1 1008:1 1009:1 2905:1 3535:1 4145:1 4400:1 9862:1 11897:1 11903:1 11904:1 11905:1 
0.5775727769526762 20:1 22:1 42:1 51:1 58:1 140:1 152:1 166:1 237:1 312:1 781:1 976:1 2279:1 3535:1 6770:1 9862:1 11905:1 11911:1 11912:1 11913:1 11914:1 11915:1 
0.6028812075449488 19:1 29:1 111:1 150:1 234:1 1730:1 2395:1 3959:1 9862:1 11184:1 11185:1 11926:1 
1 8:1 29:1 33:1 74:1 269:1 272:1 538:1 1353:1 1428:1 1600:1 2749:1 2820:1 3596:1 6883:1 11901:1 11932:1 11940:1 
0.5977388678400658 8:1 33:1 42:1 78:1 118:1 121:1 205:1 302:1 312:1 641:1 1694:1 1853:1 2329:1 2576:1 2735:1 3327:1 3827:1 11944:1 11945:1 
1 15:1 140:1 152:1 207:1 931:1 1158:1 2735:1 11967:1 11971:1 
1 19:1 29:1 30:1 84:1 150:1 152:1 156:1 205:1 222:1 228:1 264:1 411:1 1008:1 1009:1 1183:1 1428:1 6207:1 6912:1 7218:1 
1 8:1 29:1 33:1 52:1 56:1 152:1 156:1 205:1 560:1 1029:1 1162:1 1293:1 2508:1 3031:1 4395:1 11993:1 
1 33:1 265:1 288:1 384:1 1418:1 1944:1 3824:1 12022:1 12023:1 12024:1 
0.3462724547343988 78:1 140:1 152:1 564:1 857:1 870:1 1683:1 2970:1 5798:1 12032:1 12042:1 12043:1 12044:1 12045:1 12046:1 12047:1 
0.5893376978457232 8:1 23:1 78:1 255:1 1064:1 1272:1 1330:1 5011:1 
1 8:1 19:1 21:1 74:1 99:1 140:1 145:1 195:1 205:1 353:1 1041:1 1554:1 2926:1 12066:1 
0.3646273142373917 8:1 30:1 44:1 84:1 148:1 205:1 383:1 389:1 503:1 560:1 2127:1 2533:1 2734:1 4352:1 7545:1 12067:1 12071:1 
0.3066254046004906 140:1 261:1 405:1 583:1 790:1 1512:1 1683:1 10317:1 11438:1 12004:1 12087:1 12088:1 12089:1 
1 12:1 21:1 30:1 43:1 58:1 187:1 286:1 405:1 752:1 1875:1 2816:1 3808:1 4404:1 5277:1 12090:1 12091:1 12092:1 
0.5776014326866774 8:1 19:1 29:1 43:1 58:1 150:1 405:1 424:1 866:1 6228:1 12094:1 12096:1 
1 29:1 33:1 78:1 140:1 151:1 152:1 264:1 271:1 560:1 643:1 788:1 1284:1 11128:1 12107:1 
1 8:1 42:1 67:1 84:1 100:1 126:1 127:1 151:1 152:1 233:1 441:1 516:1 560:1 854:1 951:1 1010:1 1074:1 1206:1 1562:1 1586:1 2261:1 2726:1 5584:1 6752:1 8459:1 11128:1 12110:1 
0.4910156518523644 29:1 94:1 126:1 152:1 1165:1 1742:1 2481:1 2651:1 6158:1 11127:1 12125:1 12126:1 12127:1 
0.2785704707179996 8:1 19:1 117:1 121:1 125:1 143:1 256:1 288:1 364:1 1135:1 1162:1 1473:1 1736:1 2481:1 3317:1 6059:1 11127:1 12113:1 12114:1 12125:1 12128:1 12129:1 12130:1 12131:1 12132:1 
1 8:1 29:1 140:1 152:1 286:1 560:1 2125:1 2668:1 2895:1 4116:1 4600:1 9874:1 11128:1 12137:1 12139:1 12140:1 
0.2189392657832078 8:1 11:1 19:1 24:1 44:1 84:1 152:1 286:1 971:1 1127:1 1586:1 2260:1 4116:1 4666:1 12133:1 12138:1 12141:1 12142:1 12143:1 
1 29:1 42:1 52:1 56:1 84:1 138:1 172:1 220:1 538:1 1062:1 1101:1 1460:1 2084:1 2807:1 3257:1 3501:1 5635:1 8457:1 
1 120:1 152:1 156:1 220:1 581:1 990:1 3501:1 6783:1 12157:1 12158:1 
1 19:1 29:1 33:1 42:1 56:1 78:1 84:1 405:1 460:1 1101:1 1460:1 1867:1 3257:1 8502:1 12161:1 12163:1 12165:1 
0.486589152446526 29:1 42:1 44:1 56:1 170:1 206:1 220:1 321:1 429:1 587:1 817:1 1914:1 2359:1 2418:1 3362:1 5418:1 10063:1 12179:1 
0.4683390859749146 29:1 30:1 42:1 67:1 264:1 963:1 1008:1 1009:1 1702:1 2303:1 3079:1 7218:1 12180:1 
0.625879261752316 29:1 35:1 84:1 96:1 121:1 143:1 228:1 238:1 293:1 304:1 1035:1 1162:1 2416:1 12184:1 12185:1 12186:1 
0.6886038132152955 8:1 29:1 38:1 140:1 206:1 222:1 228:1 575:1 999:1 1011:1 1039:1 1110:1 1283:1 1768:1 3057:1 5798:1 12192:1 12193:1 12194:1 
0.656195188287237 8:1 29:1 34:1 121:1 150:1 184:1 201:1 222:1 343:1 355:1 486:1 948:1 981:1 1011:1 1460:1 1641:1 1768:1 2084:1 2425:1 3279:1 4574:1 4719:1 5037:1 8723:1 
1 19:1 23:1 29:1 44:1 52:1 76:1 84:1 147:1 222:1 273:1 304:1 1097:1 1183:1 1428:1 1768:1 8709:1 
0.3034098549835363 8:1 15:1 29:1 84:1 121:1 636:1 1055:1 1928:1 2867:1 7032:1 7355:1 12220:1 12221:1 12222:1 12223:1 12224:1 12225:1 
0.6195747815326544 8:1 121:1 241:1 288:1 447:1 1055:1 3700:1 9079:1 12222:1 12229:1 12230:1 
1 29:1 78:1 3700:1 4445:1 6519:1 7915:1 9079:1 12231:1 
1 19:1 21:1 229:1 583:1 1949:1 3146:1 4354:1 12231:1 
0.478821331414889 8:1 19:1 220:1 376:1 538:1 564:1 716:1 1865:1 2410:1 3812:1 4623:1 5532:1 6427:1 9101:1 10986:1 12241:1 
0.4337629695383129 8:1 29:1 56:1 78:1 140:1 152:1 269:1 324:1 345:1 1253:1 2067:1 2252:1 4354:1 4562:1 9101:1 12245:1 12246:1 12247:1 12248:1 12249:1 12250:1 
0.6695586724532235 19:1 24:1 75:1 76:1 110:1 115:1 187:1 206:1 979:1 1142:1 5181:1 10960:1 12259:1 
0.499697396494525 7:1 8:1 29:1 125:1 505:1 979:1 1652:1 2810:1 11378:1 12260:1 
1 21:1 78:1 118:1 122:1 434:1 441:1 1006:1 2852:1 5421:1 12267:1 
0.3560980383079597 8:1 29:1 48:1 84:1 187:1 583:1 979:1 1083:1 1142:1 1278:1 1541:1 2003:1 2400:1 2431:1 2852:1 2858:1 3329:1 11378:1 12262:1 12268:1 
1 8:1 78:1 216:1 7899:1 9369:1 11378:1 12260:1 
1 516:1 990:1 1006:1 12285:1 12286:1 
1 28:1 33:1 44:1 74:1 76:1 126:1 148:1 152:1 1330:1 1586:1 2261:1 3096:1 3431:1 4832:1 8410:1 9850:1 9857:1 12295:1 
0.4686710372629705 29:1 52:1 56:1 58:1 281:1 288:1 319:1 418:1 468:1 1162:1 1388:1 1483:1 1567:1 2455:1 3177:1 12331:1 12346:1 12347:1 
0.3982932056760231 33:1 38:1 78:1 79:1 237:1 261:1 389:1 418:1 441:1 469:1 500:1 951:1 1409:1 1456:1 4656:1 5798:1 12373:1 12390:1 12391:1 
1 112:1 126:1 140:1 152:1 3763:1 5010:1 12399:1 12440:1 12441:1 
1 8:1 18:1 19:1 29:1 39:1 93:1 140:1 152:1 167:1 515:1 854:1 1011:1 5010:1 12399:1 12442:1 12444:1 12448:1 
0.4922972488175985 12:1 19:1 29:1 84:1 93:1 140:1 152:1 302:1 1635:1 2978:1 5010:1 12399:1 
0.6278118540057567 8:1 19:1 147:1 167:1 168:1 706:1 3763:1 6759:1 12399:1 12400:1 12460:1 12461:1 
1 8:1 29:1 343:1 863:1 1010:1 1436:1 12462:1 12470:1 12471:1 
1 29:1 400:1 1097:1 5700:1 7022:1 12472:1 
0.8200843026778291 8:1 28:1 29:1 127:1 140:1 150:1 151:1 152:1 173:1 206:1 231:1 237:1 271:1 359:1 466:1 644:1 990:1 1074:1 1320:1 2207:1 2315:1 3884:1 6932:1 9513:1 12503:1 12504:1 12505:1 
1 8:1 29:1 48:1 207:1 363:1 400:1 858:1 1041:1 12558:1 12564:1 12565:1 
0.439099020924845 8:1 19:1 33:1 170:1 321:1 587:1 1293:1 1326:1 3597:1 
0.4202896796311294 19:1 29:1 56:1 174:1 578:1 1326:1 1460:1 10167:1 12572:1 
1 19:1 29:1 33:1 35:1 76:1 121:1 130:1 144:1 156:1 175:1 239:1 355:1 395:1 459:1 486:1 860:1 948:1 1192:1 3597:1 12586:1 
1 8:1 29:1 148:1 286:1 295:1 416:1 1333:1 12600:1 12601:1 12602:1 
1 29:1 38:1 302:1 560:1 788:1 1460:1 5886:1 7786:1 12619:1 12623:1 12624:1 
0.9813482164465731 76:1 295:1 389:1 2223:1 6327:1 12643:1 12663:1 
1 8:1 67:1 78:1 81:1 121:1 126:1 140:1 152:1 195:1 237:1 302:1 312:1 420:1 1849:1 2007:1 2052:1 3827:1 7474:1 11727:1 12667:1 12668:1 12669:1 
1 19:1 84:1 1042:1 2694:1 11974:1 12667:1 12677:1 
1 29:1 33:1 50:1 76:1 156:1 239:1 325:1 363:1 928:1 1266:1 1330:1 1837:1 2897:1 4868:1 11974:1 12667:1 12691:1 12692:1 12693:1 
0.6212172030015952 7:1 8:1 15:1 19:1 47:1 78:1 140:1 152:1 156:1 458:1 863:1 999:1 1512:1 2007:1 5172:1 11974:1 12696:1 12697:1 12698:1 
0.6702944462810823 1:1 8:1 29:1 33:1 56:1 78:1 117:1 140:1 152:1 234:1 269:1 301:1 399:1 429:1 496:1 505:1 579:1 855:1 882:1 928:1 931:1 1162:1 1428:1 2668:1 2876:1 3789:1 4719:1 12667:1 12682:1 12687:1 12707:1 12708:1 12709:1 12710:1 12711:1 12712:1 12713:1 12714:1 12715:1 12716:1 12717:1 
1 78:1 120:1 140:1 152:1 265:1 3307:1 12726:1 12727:1 
1 19:1 43:1 78:1 121:1 136:1 140:1 152:1 220:1 229:1 355:1 459:1 542:1 583:1 681:1 785:1 792:1 996:1 3526:1 3529:1 4159:1 10451:1 12729:1 12730:1 12731:1 12732:1 
1 2206:1 8530:1 12760:1 
1 19:1 78:1 140:1 166:1 193:1 234:1 2207:1 2550:1 4571:1 4787:1 
0.4186704658256138 29:1 78:1 125:1 126:1 172:1 180:1 447:1 469:1 1004:1 1009:1 1182:1 1731:1 1770:1 2176:1 10014:1 10920:1 12773:1 12774:1 12775:1 12776:1 12777:1 
1 8:1 29:1 42:1 125:1 135:1 271:1 295:1 405:1 860:1 901:1 995:1 1009:1 2376:1 3307:1 8332:1 8461:1 8530:1 12037:1 12764:1 
1 74:1 133:1 405:1 583:1 1144:1 2376:1 4700:1 12779:1 
0.5559683075904847 8:1 19:1 45:1 84:1 126:1 971:1 1009:1 1010:1 1029:1 1679:1 3214:1 3485:1 3909:1 4320:1 12764:1 12791:1 12792:1 12793:1 
0.2980982293716601 12:1 14:1 19:1 29:1 110:1 115:1 195:1 271:1 273:1 405:1 423:1 636:1 853:1 1011:1 1645:1 12311:1 12764:1 12795:1 12797:1 12806:1 12807:1 
1 19:1 28:1 149:1 195:1 207:1 229:1 405:1 737:1 987:1 3798:1 
1 129:1 184:1 1071:1 2731:1 3819:1 7264:1 12819:1 
0.02099296081729274 18:1 19:1 33:1 45:1 126:1 158:1 161:1 681:1 767:1 768:1 1042:1 1527:1 3835:1 8528:1 9880:1 12841:1 12842:1 12844:1 
0.6789825413233648 19:1 52:1 107:1 633:1 866:1 970:1 1808:1 12848:1 12849:1 12850:1 
1 8:1 10:1 19:1 29:1 78:1 121:1 149:1 245:1 930:1 1029:1 1062:1 3277:1 5480:1 
0.3442121907378209 1:1 18:1 70:1 78:1 125:1 140:1 152:1 158:1 161:1 227:1 237:1 500:1 542:1 790:1 792:1 1554:1 3598:1 4231:1 5018:1 12867:1 12868:1 12869:1 12870:1 
1 8:1 29:1 33:1 42:1 74:1 120:1 148:1 149:1 198:1 237:1 245:1 271:1 290:1 790:1 1440:1 1456:1 3277:1 12870:1 
0.6195946477560093 19:1 29:1 208:1 321:1 359:1 1010:1 1144:1 1148:1 1426:1 1440:1 1567:1 2619:1 2820:1 3060:1 7608:1 8777:1 11088:1 
1 8:1 78:1 140:1 152:1 173:1 192:1 205:1 206:1 261:1 271:1 1699:1 3636:1 3828:1 7068:1 12888:1 12889:1 12890:1 12891:1 
0.6925151915120006 8:1 52:1 55:1 125:1 271:1 1006:1 2720:1 11133:1 12908:1 12909:1 12910:1 12911:1 
0.4452288475781667 29:1 125:1 271:1 272:1 336:1 445:1 500:1 798:1 854:1 995:1 4571:1 7936:1 12891:1 12926:1 
0.7575146755903158 56:1 125:1 151:1 181:1 288:1 785:1 1260:1 1597:1 1800:1 
1 138:1 206:1 212:1 300:1 1069:1 3125:1 6257:1 6577:1 
1 29:1 125:1 148:1 150:1 12938:1 12945:1 
0.5077027511824015 7:1 93:1 140:1 151:1 152:1 195:1 271:1 938:1 1971:1 2025:1 2084:1 4778:1 8537:1 12948:1 
1 42:1 56:1 172:1 637:1 2376:1 8788:1 12959:1 12960:1 12961:1 
0.3659717720856491 8:1 29:1 93:1 125:1 271:1 538:1 1702:1 3803:1 12948:1 12977:1 12984:1 12985:1 12986:1 
1 8:1 29:1 125:1 271:1 500:1 1702:1 12978:1 12984:1 12988:1 12989:1 
1 33:1 122:1 140:1 152:1 205:1 321:1 445:1 721:1 857:1 866:1 1451:1 1971:1 12990:1 12991:1 
1 19:1 29:1 56:1 138:1 205:1 321:1 866:1 1639:1 9375:1 12990:1 12992:1 
1 8:1 38:1 78:1 125:1 321:1 542:1 1954:1 2637:1 7654:1 12991:1 12993:1 12999:1 13000:1 
1 38:1 78:1 101:1 125:1 140:1 321:1 970:1 1266:1 4747:1 7654:1 9375:1 12994:1 13001:1 
0.4475966148106573 8:1 29:1 38:1 44:1 78:1 86:1 125:1 205:1 321:1 503:1 677:1 828:1 1197:1 2798:1 6077:1 12991:1 13003:1 13004:1 13014:1 13015:1 
1 29:1 43:1 44:1 78:1 140:1 152:1 222:1 706:1 1266:1 1723:1 1907:1 2307:1 2851:1 3704:1 4202:1 4888:1 13027:1 13040:1 13041:1 
0.6130648538690386 29:1 42:1 148:1 205:1 286:1 400:1 831:1 1016:1 1333:1 1464:1 12990:1 13003:1 13031:1 13034:1 13043:1 
1 389:1 400:1 1475:1 2619:1 3650:1 5700:1 13049:1 13050:1 
1 121:1 122:1 411:1 480:1 1313:1 2122:1 3096:1 4123:1 8502:1 9269:1 10575:1 
1 78:1 101:1 140:1 151:1 152:1 271:1 583:1 1041:1 1512:1 12037:1 
0.4072067567263633 8:1 21:1 35:1 78:1 122:1 125:1 206:1 405:1 860:1 3307:1 8332:1 9495:1 11439:1 12037:1 
1 8:1 29:1 42:1 152:1 156:1 175:1 312:1 857:1 976:1 1206:1 1600:1 1730:1 8378:1 11930:1 13070:1 13084:1 13085:1 13086:1 
0.5410785844429289 45:1 281:1 790:1 1427:1 1646:1 4396:1 10202:1 13092:1 13096:1 13097:1 
0.5344283600958245 19:1 29:1 44:1 56:1 84:1 288:1 511:1 547:1 650:1 860:1 2269:1 3597:1 4700:1 5244:1 12578:1 13079:1 13083:1 13092:1 13094:1 
1 8:1 19:1 42:1 93:1 125:1 156:1 229:1 459:1 1010:1 1266:1 1398:1 1487:1 2084:1 2849:1 3307:1 4396:1 8962:1 13091:1 13095:1 13108:1 13109:1 
1 8:1 19:1 29:1 30:1 42:1 152:1 156:1 583:1 643:1 860:1 1030:1 1069:1 1197:1 1266:1 1586:1 2261:1 2849:1 12578:1 13094:1 13111:1 
0.9402145777435325 8:1 125:1 148:1 389:1 892:1 2447:1 2682:1 12578:1 13094:1 13112:1 13113:1 13114:1 
1 29:1 1095:1 1333:1 2682:1 4396:1 8378:1 13079:1 13099:1 13115:1 
1 389:1 538:1 1010:1 6384:1 
1 38:1 176:1 405:1 3008:1 7030:1 13116:1 13127:1 
1 8:1 22:1 29:1 31:1 34:1 50:1 56:1 66:1 125:1 147:1 149:1 184:1 970:1 1011:1 1440:1 2271:1 2288:1 3193:1 3496:1 4499:1 6191:1 6541:1 13132:1 13133:1 13134:1 
0.6579267183796712 19:1 33:1 42:1 84:1 110:1 152:1 486:1 538:1 1586:1 1805:1 1834:1 2009:1 2122:1 2503:1 2817:1 5338:1 5485:1 8814:1 13153:1 13154:1 13162:1 13163:1 13165:1 13166:1 13167:1 13168:1 
0.5012204847047429 19:1 29:1 78:1 120:1 198:1 855:1 1327:1 1834:1 2570:1 6238:1 13155:1 13169:1 13170:1 13171:1 13172:1 
1 1143:1 7458:1 
1 12:1 198:1 583:1 754:1 1027:1 4980:1 5289:1 5573:1 13176:1 13177:1 13178:1 13179:1 13180:1 
1 8:1 10:1 12:1 29:1 48:1 156:1 172:1 854:1 1089:1 1363:1 1464:1 3207:1 3810:1 13188:1 13189:1 
1 8:1 516:1 581:1 683:1 13231:1 13239:1 13240:1 13241:1 13242:1 13243:1 
1 19:1 29:1 120:1 121:1 152:1 156:1 200:1 290:1 355:1 852:1 2348:1 2363:1 3409:1 5181:1 5398:1 13220:1 13224:1 13225:1 13230:1 13235:1 13249:1 13250:1 
0.5335068686153678 29:1 33:1 42:1 111:1 152:1 156:1 516:1 579:1 828:1 855:1 5903:1 6758:1 9694:1 13213:1 13249:1 13253:1 
0.5169698567156945 8:1 11:1 300:1 1850:1 3261:1 13211:1 13249:1 13260:1 
0.8545798629477033 19:1 40:1 78:1 140:1 150:1 152:1 156:1 193:1 998:1 13249:1 13269:1 13270:1 13271:1 
0.3001095369243408 7:1 20:1 24:1 29:1 67:1 140:1 152:1 405:1 799:1 1158:1 1834:1 2385:1 2668:1 3689:1 12004:1 13231:1 13274:1 13275:1 13276:1 13277:1 
1 29:1 130:1 138:1 156:1 637:1 1077:1 8848:1 13249:1 13288:1 13289:1 
1 19:1 29:1 58:1 76:1 78:1 129:1 331:1 359:1 637:1 1104:1 1184:1 1527:1 2363:1 3689:1 5533:1 10507:1 11150:1 11745:1 13249:1 
0.5711139659832579 8:1 12:1 51:1 74:1 135:1 174:1 281:1 376:1 516:1 568:1 581:1 683:1 871:1 1442:1 2668:1 5463:1 12533:1 13229:1 13278:1 13297:1 13298:1 13299:1 13300:1 13301:1 13302:1 13303:1 13304:1 13305:1 13306:1 
1 1:1 7:1 8:1 33:1 38:1 78:1 101:1 120:1 280:1 355:1 400:1 516:1 1266:1 1388:1 1805:1 1930:1 4795:1 5419:1 13229:1 13313:1 13314:1 
1 8:1 19:1 58:1 78:1 121:1 129:1 355:1 405:1 1343:1 1353:1 1389:1 1834:1 2008:1 2009:1 4980:1 13235:1 13315:1 
0.654877805128314 19:1 78:1 126:1 198:1 355:1 441:1 1183:1 2007:1 2519:1 11953:1 13331:1 
1 73:1 161:1 3742:1 3808:1 13349:1 
1 1143:1 
1 2348:1 13220:1 13225:1 
1 140:1 152:1 156:1 172:1 193:1 405:1 1039:1 1834:1 3677:1 13221:1 13375:1 13385:1 13394:1 13395:1 
0.4763460624636545 11:1 33:1 620:1 855:1 870:1 1148:1 1159:1 1216:1 5866:1 6334:1 13376:1 13403:1 13404:1 13412:1 13413:1 13414:1 13415:1 
0.5079677041026769 19:1 29:1 56:1 152:1 156:1 1054:1 1159:1 1343:1 1834:1 2273:1 2386:1 2837:1 3057:1 3689:1 5866:1 13221:1 13279:1 13416:1 13417:1 13418:1 
0.4218620849134032 8:1 19:1 29:1 44:1 78:1 120:1 152:1 156:1 286:1 300:1 441:1 589:1 799:1 852:1 934:1 954:1 989:1 1089:1 1327:1 1371:1 1954:1 2008:1 2273:1 3299:1 5532:1 5664:1 5866:1 9586:1 13235:1 13356:1 13357:1 13427:1 13428:1 
0.6521436943091673 19:1 33:1 85:1 152:1 156:1 445:1 754:1 892:1 1035:1 2341:1 3817:1 13221:1 13385:1 
0.4809511972924513 19:1 24:1 29:1 42:1 76:1 84:1 223:1 416:1 579:1 852:1 1074:1 1089:1 2134:1 2765:1 8831:1 13224:1 13275:1 13373:1 13459:1 13460:1 13461:1 
1 19:1 29:1 78:1 140:1 152:1 275:1 516:1 928:1 1518:1 13488:1 
0.4570412093995391 29:1 81:1 215:1 644:1 2122:1 2158:1 5616:1 6696:1 6747:1 12856:1 13502:1 13503:1 
0.8555211019087666 8:1 29:1 33:1 81:1 321:1 587:1 636:1 637:1 877:1 1786:1 3626:1 6747:1 13504:1 13515:1 13516:1 13517:1 
1 8:1 29:1 184:1 288:1 343:1 544:1 721:1 831:1 854:1 871:1 1426:1 1442:1 1632:1 2122:1 7913:1 7936:1 13491:1 13505:1 13526:1 13527:1 
1 11:1 187:1 198:1 288:1 319:1 587:1 849:1 1027:1 1282:1 1426:1 3485:1 13528:1 13529:1 13530:1 
1 1:1 19:1 29:1 205:1 229:1 288:1 405:1 538:1 3096:1 13561:1 13576:1 
1 1:1 8:1 12:1 38:1 58:1 78:1 81:1 125:1 130:1 140:1 152:1 156:1 205:1 405:1 587:1 817:1 866:1 1602:1 2767:1 8505:1 9577:1 13557:1 13561:1 13596:1 13597:1 13598:1 
1 58:1 152:1 156:1 417:1 817:1 1036:1 1476:1 5635:1 13463:1 
1 8:1 19:1 29:1 33:1 66:1 121:1 144:1 152:1 184:1 198:1 205:1 333:1 355:1 538:1 583:1 817:1 1083:1 1097:1 1930:1 13548:1 13561:1 13617:1 13618:1 
1 8:1 29:1 78:1 125:1 198:1 205:1 286:1 295:1 817:1 1600:1 1930:1 2007:1 6132:1 6133:1 8505:1 13463:1 
1 8:1 19:1 29:1 120:1 146:1 152:1 156:1 205:1 560:1 581:1 930:1 1011:1 1930:1 3257:1 3605:1 3804:1 5635:1 8316:1 13463:1 13624:1 13625:1 13626:1 13627:1 
0.6707844673412174 8:1 29:1 35:1 38:1 389:1 683:1 854:1 1011:1 1810:1 1930:1 4719:1 10533:1 13626:1 13627:1 13628:1 
0.6177937081410314 8:1 19:1 29:1 81:1 121:1 205:1 272:1 275:1 355:1 416:1 440:1 855:1 870:1 1039:1 1418:1 3218:1 3492:1 3750:1 5582:1 10451:1 13372:1 13487:1 13641:1 13642:1 13643:1 13644:1 13645:1 13646:1 13647:1 
0.6265031463314861 12:1 152:1 156:1 286:1 562:1 971:1 1241:1 3057:1 4421:1 13494:1 13657:1 
1 8:1 29:1 33:1 42:1 74:1 100:1 167:1 265:1 270:1 271:1 275:1 405:1 568:1 587:1 683:1 798:1 852:1 1957:1 2023:1 3822:1 5287:1 13591:1 13656:1 13657:1 13658:1 13667:1 13668:1 13669:1 
1 8:1 100:1 167:1 213:1 2023:1 10512:1 13657:1 13658:1 13659:1 
1 8:1 29:1 81:1 125:1 295:1 364:1 460:1 798:1 1095:1 1907:1 13656:1 13673:1 13676:1 13677:1 13678:1 13679:1 
0.5141510978220816 8:1 12:1 33:1 42:1 101:1 195:1 241:1 1330:1 1991:1 2023:1 2028:1 3822:1 8911:1 10412:1 13591:1 13667:1 13702:1 13703:1 13704:1 13705:1 13706:1 13707:1 
0.3113961867847045 8:1 19:1 29:1 38:1 105:1 118:1 143:1 150:1 195:1 198:1 1183:1 1907:1 1991:1 2023:1 2052:1 3618:1 3785:1 10512:1 13656:1 13658:1 13727:1 13728:1 
0.1392810787354553 8:1 460:1 1367:1 1907:1 13591:1 13656:1 13667:1 13683:1 13735:1 
1 24:1 29:1 56:1 172:1 364:1 440:1 635:1 831:1 870:1 972:1 1823:1 4159:1 13738:1 
0.4686511605861787 8:1 19:1 140:1 193:1 440:1 1823:1 2023:1 10237:1 13542:1 13796:1 
1 7:1 22:1 78:1 143:1 542:1 2272:1 3072:1 3988:1 6893:1 13830:1 13831:1 
1 8:1 76:1 78:1 170:1 206:1 209:1 261:1 457:1 641:1 969:1 1168:1 2540:1 8483:1 8484:1 
